{"learner":{"attributes":{"scikit_learn":"{\"_estimator_type\": \"regressor\"}"},"feature_names":["match_id","batting_team","bowling_team","city","runs_left","balls_left","wickets_in_hand","CRR","RRR"],"feature_types":["int","int","int","int","float","int","int","float","float"],"gradient_booster":{"model":{"gbtree_model_param":{"num_parallel_tree":"1","num_trees":"100"},"iteration_indptr":[0,1,2,3,4,5,6,7,8,9,10,11,12,13,14,15,16,17,18,19,20,21,22,23,24,25,26,27,28,29,30,31,32,33,34,35,36,37,38,39,40,41,42,43,44,45,46,47,48,49,50,51,52,53,54,55,56,57,58,59,60,61,62,63,64,65,66,67,68,69,70,71,72,73,74,75,76,77,78,79,80,81,82,83,84,85,86,87,88,89,90,91,92,93,94,95,96,97,98,99,100],"tree_info":[0,0,0,0,0,0,0,0,0,0,0,0,0,0,0,0,0,0,0,0,0,0,0,0,0,0,0,0,0,0,0,0,0,0,0,0,0,0,0,0,0,0,0,0,0,0,0,0,0,0,0,0,0,0,0,0,0,0,0,0,0,0,0,0,0,0,0,0,0,0,0,0,0,0,0,0,0,0,0,0,0,0,0,0,0,0,0,0,0,0,0,0,0,0,0,0,0,0,0,0],"trees":[{"base_weights":[-1.0011842E-5,5.4574802E1,-3.1739296E1,9.707469E1,3.889289E1,-1.2242042E1,-6.829633E1,1.1107806E1,7.6484985E0,2.2640253E1,4.9123325E1,-2.6263388E1,-2.7667204E-1,-5.923599E1,-1.1777995E2,2.9020866E1,1.3879458E1,5.6325165E1,3.749289E1,-3.958712E1,-1.9287949E1,9.777643E0,-2.3612106E1,-7.565649E1,-3.2692005E1,-3.3193436E0,-1.1975661E1,2.9727743E1,1.3459847E0,7.824808E0,1.7337582E1,4.7805476E0,7.0247164E0,6.84905E1,3.3718754E1,-2.9427745E0,-4.2479515E0,-1.466798E1,-3.6051105E1,3.950255E0,2.9936813E1,-1.8360704E1,-8.729015E0,-5.8487156E1,-8.993913E1,-1.8653902E1,-5.087199E1,2.1497905E0,3.2242153E0,8.172254E-1,1.3065644E-1,2.082481E0,9.21167E-1,1.8306564E0,7.6459846E0,4.25575E0,2.110821E0,-1.987669E0,-1.0144597E0,-2.0822394E0,-3.930529E0,7.438602E-1,-7.0913965E-1,2.1635885E0,3.8489041E0,-6.035116E-1,-2.5647876E0,-5.913383E0,-1.4693435E0,-7.0891795E0,-1.0237306E1,-3.6787565E0,1.5235105E-1,-6.6198716E0,-1.4566108E0],"categories":[],"categories_nodes":[],"categories_segments":[],"categories_sizes":[],"default_left":[0,0,0,0,0,0,0,0,0,0,0,0,0,0,0,0,0,0,0,0,0,0,0,0,0,0,0,0,0,0,0,0,0,0,0,0,0,0,0,0,0,0,0,0,0,0,0,0,0,0,0,0,0,0,0,0,0,0,0,0,0,0,0,0,0,0,0,0,0,0,0,0,0,0,0],"id":0,"left_children":[1,3,5,7,9,11,13,-1,-1,15,17,19,21,23,25,27,29,31,33,35,37,39,41,43,45,-1,-1,47,-1,49,51,-1,-1,53,55,-1,-1,57,59,61,63,65,-1,67,69,71,73,-1,-1,-1,-1,-1,-1,-1,-1,-1,-1,-1,-1,-1,-1,-1,-1,-1,-1,-1,-1,-1,-1,-1,-1,-1,-1,-1,-1],"loss_changes":[1.4273044E6,1.9816788E5,3.7051288E5,1.48585625E4,3.5966375E4,5.7202516E4,7.41725E4,0E0,0E0,4.5163438E3,9.279656E3,1.3827836E4,4.3635902E4,6.508575E4,5.3921875E2,1.4985156E2,6.809077E2,6.3679062E3,4.124992E3,3.0732812E2,7.602957E3,1.5153533E4,1.7123637E4,1.8035938E4,1.4619E4,0E0,0E0,2.794414E2,0E0,2.5558167E1,4.882544E2,0E0,0E0,5.999453E2,4.7862188E3,0E0,0E0,1.7774824E3,2.7182617E2,3.9814949E3,1.2260078E3,4.6055996E3,0E0,4.3385938E2,4.5842188E3,1.3228099E4,1.3503445E4,0E0,0E0,0E0,0E0,0E0,0E0,0E0,0E0,0E0,0E0,0E0,0E0,0E0,0E0,0E0,0E0,0E0,0E0,0E0,0E0,0E0,0E0,0E0,0E0,0E0,0E0,0E0,0E0],"parents":[2147483647,0,0,1,1,2,2,3,3,4,4,5,5,6,6,9,9,10,10,11,11,12,12,13,13,14,14,15,15,16,16,17,17,18,18,19,19,20,20,21,21,22,22,23,23,24,24,27,27,29,29,30,30,33,33,34,34,37,37,38,38,39,39,40,40,41,41,43,43,44,44,45,45,46,46],"right_children":[2,4,6,8,10,12,14,-1,-1,16,18,20,22,24,26,28,30,32,34,36,38,40,42,44,46,-1,-1,48,-1,50,52,-1,-1,54,56,-1,-1,58,60,62,64,66,-1,68,70,72,74,-1,-1,-1,-1,-1,-1,-1,-1,-1,-1,-1,-1,-1,-1,-1,-1,-1,-1,-1,-1,-1,-1,-1,-1,-1,-1,-1,-1],"split_conditions":[-1.62E2,-1.91E2,-1.31E2,-1.99E2,1.8947369E1,1.6736841E1,4E1,1.1107806E1,7.6484985E0,-1.68E2,6E0,1.5473684E1,1.2E1,1.5277778E1,-1.8324324E1,6E0,1.7384615E1,1.9857143E1,-2E0,-1.39E2,8E0,1.7947369E1,5.3E1,-1.18E2,2.2E1,-3.3193436E0,-1.1975661E1,1.8166666E1,1.3459847E0,3E0,3E0,4.7805476E0,7.0247164E0,8.29717E5,-1.75E2,-2.9427745E0,-4.2479515E0,1.6105263E1,-1.45E2,6E0,1.868421E1,-1.52E2,-8.729015E0,1.5263158E1,7E0,1.638889E1,1.9157894E1,2.1497905E0,3.2242153E0,8.172254E-1,1.3065644E-1,2.082481E0,9.21167E-1,1.8306564E0,7.6459846E0,4.25575E0,2.110821E0,-1.987669E0,-1.0144597E0,-2.0822394E0,-3.930529E0,7.438602E-1,-7.0913965E-1,2.1635885E0,3.8489041E0,-6.035116E-1,-2.5647876E0,-5.913383E0,-1.4693435E0,-7.0891795E0,-1.0237306E1,-3.6787565E0,1.5235105E-1,-6.6198716E0,-1.4566108E0],"split_indices":[4,4,4,4,7,7,5,0,0,4,5,7,5,7,8,5,7,7,6,4,5,7,5,4,5,0,0,7,0,6,5,0,0,0,4,0,0,7,4,5,7,4,0,7,5,7,7,0,0,0,0,0,0,0,0,0,0,0,0,0,0,0,0,0,0,0,0,0,0,0,0,0,0,0,0],"split_type":[0,0,0,0,0,0,0,0,0,0,0,0,0,0,0,0,0,0,0,0,0,0,0,0,0,0,0,0,0,0,0,0,0,0,0,0,0,0,0,0,0,0,0,0,0,0,0,0,0,0,0,0,0,0,0,0,0,0,0,0,0,0,0,0,0,0,0,0,0,0,0,0,0,0,0],"sum_hessian":[8.22E2,3.02E2,5.2E2,8E1,2.22E2,3.4E2,1.8E2,4.5E1,3.5E1,8.7E1,1.35E2,1.56E2,1.84E2,1.54E2,2.6E1,4.9E1,3.8E1,8.1E1,5.4E1,5.2E1,1.04E2,1.29E2,5.5E1,9.4E1,6E1,1E0,2.5E1,4.6E1,3E0,1.5E1,2.3E1,5.3E1,2.8E1,4E0,5E1,1.4E1,3.8E1,8.3E1,2.1E1,1.01E2,2.8E1,5.2E1,3E0,4.5E1,4.9E1,3.5E1,2.5E1,1.3E1,3.3E1,1.4E1,1E0,1.5E1,8E0,1E0,3E0,2.8E1,2.2E1,3.7E1,4.6E1,5E0,1.6E1,7.7E1,2.4E1,1.6E1,1.2E1,2E1,3.2E1,4.4E1,1E0,2.2E1,2.7E1,1.8E1,1.7E1,1.7E1,8E0],"tree_param":{"num_deleted":"0","num_feature":"9","num_nodes":"75","size_leaf_vector":"1"}},{"base_weights":[-2.016259E-2,4.930569E1,-2.8706753E1,8.759878E1,3.517544E1,-1.1082516E1,-6.1751827E1,1.1758835E1,7.779548E1,2.0497494E1,4.4414295E1,-2.3740265E1,-2.8062826E-1,-5.170596E1,-9.8195335E1,5.8252873E0,8.163472E0,2.6253183E1,1.2592828E1,5.0836613E1,3.403167E1,-3.5764076E1,-1.7445005E1,5.8341136E0,-3.2067932E1,-6.337346E1,-1.9786121E1,6.5348667E-1,-1.012025E2,2.6869314E1,1.2450364E0,7.1015663E0,1.5728969E1,4.361214E0,6.471963E0,6.3536774E1,3.0471725E1,-2.6681154E0,-3.834048E0,-1.2086612E1,-2.9846117E1,1.4525982E1,-2.1869135E0,-2.366905E1,-8.07434E0,-8.186406E0,-5.5586433E1,-7.808179E0,-4.147315E1,-5.6273704E0,-1.0494315E1,2.0364134E0,2.956992E0,7.409505E-1,1.2412415E-1,1.8872474E0,8.392849E-1,1.7391236E0,7.072535E0,3.6714883E0,1.5825713E0,-1.627386E0,-5.618457E-1,-1.9813131E0,-3.4373605E0,7.853165E-1,3.024444E0,1.661685E0,-5.970475E-1,-1.1042706E0,-3.3033943E0,-4.510208E0,-7.333145E0,-2.4494615E0,-7.4319616E-2,-4.8146963E0,-9.535115E-2],"categories":[],"categories_nodes":[],"categories_segments":[],"categories_sizes":[],"default_left":[0,0,0,0,0,0,0,0,0,0,0,0,0,0,0,0,0,0,0,0,0,0,0,0,0,0,0,0,0,0,0,0,0,0,0,0,0,0,0,0,0,0,0,0,0,0,0,0,0,0,0,0,0,0,0,0,0,0,0,0,0,0,0,0,0,0,0,0,0,0,0,0,0,0,0,0,0],"id":1,"left_children":[1,3,5,7,9,11,13,-1,15,17,19,21,23,25,27,-1,-1,29,31,33,35,37,39,41,43,45,47,-1,49,51,-1,53,55,-1,-1,57,59,-1,-1,61,63,65,67,69,-1,-1,71,73,75,-1,-1,-1,-1,-1,-1,-1,-1,-1,-1,-1,-1,-1,-1,-1,-1,-1,-1,-1,-1,-1,-1,-1,-1,-1,-1,-1,-1],"loss_changes":[1.1659526E6,1.6086925E5,3.0274303E5,1.4665875E4,2.9330062E4,4.661744E4,6.1188E4,0E0,4.6375E1,3.6731172E3,7.3385E3,1.1259906E4,3.614575E4,5.237525E4,1.2629094E4,0E0,0E0,9.068359E1,5.599331E2,5.401828E3,3.8409375E3,2.1729688E2,6.6165176E3,1.0907729E4,1.0353465E4,1.05680625E4,1.0066809E4,0E0,3.128125E2,2.2352734E2,0E0,1.9677002E1,3.9507324E2,0E0,0E0,4.2860352E2,4.0822656E3,0E0,0E0,1.9398486E3,7.2710156E2,7.628966E3,5.933117E3,2.8278145E3,0E0,0E0,1.1018047E4,3.1648088E3,3.7399785E3,0E0,0E0,0E0,0E0,0E0,0E0,0E0,0E0,0E0,0E0,0E0,0E0,0E0,0E0,0E0,0E0,0E0,0E0,0E0,0E0,0E0,0E0,0E0,0E0,0E0,0E0,0E0,0E0],"parents":[2147483647,0,0,1,1,2,2,3,3,4,4,5,5,6,6,8,8,9,9,10,10,11,11,12,12,13,13,14,14,17,17,18,18,19,19,20,20,21,21,22,22,23,23,24,24,25,25,26,26,28,28,29,29,31,31,32,32,35,35,36,36,39,39,40,40,41,41,42,42,43,43,46,46,47,47,48,48],"right_children":[2,4,6,8,10,12,14,-1,16,18,20,22,24,26,28,-1,-1,30,32,34,36,38,40,42,44,46,48,-1,50,52,-1,54,56,-1,-1,58,60,-1,-1,62,64,66,68,70,-1,-1,72,74,76,-1,-1,-1,-1,-1,-1,-1,-1,-1,-1,-1,-1,-1,-1,-1,-1,-1,-1,-1,-1,-1,-1,-1,-1,-1,-1,-1,-1],"split_conditions":[-1.62E2,-1.91E2,-1.31E2,-2.12E2,1.8947369E1,1.6736841E1,3.6E1,1.1758835E1,2.0833334E1,-1.68E2,6E0,1.5473684E1,2.4E1,1.5722222E1,-2.0857143E1,5.8252873E0,8.163472E0,6E0,1.7384615E1,2.0052631E1,-2E0,-1.39E2,6E0,1E0,5.3E1,1.3315789E1,2.4E1,6.5348667E-1,-1.8324324E1,1.8277779E1,1.2450364E0,3E0,3E0,4.361214E0,6.471963E0,8.29717E5,-1.74E2,-2.6681154E0,-3.834048E0,1.6166666E1,-1.45E2,1.782353E1,-4E0,-1.48E2,-8.07434E0,-8.186406E0,1.2E1,1.638889E1,1.988889E1,-5.6273704E0,-1.0494315E1,2.0364134E0,2.956992E0,7.409505E-1,1.2412415E-1,1.8872474E0,8.392849E-1,1.7391236E0,7.072535E0,3.6714883E0,1.5825713E0,-1.627386E0,-5.618457E-1,-1.9813131E0,-3.4373605E0,7.853165E-1,3.024444E0,1.661685E0,-5.970475E-1,-1.1042706E0,-3.3033943E0,-4.510208E0,-7.333145E0,-2.4494615E0,-7.4319616E-2,-4.8146963E0,-9.535115E-2],"split_indices":[4,4,4,4,7,7,5,0,7,4,5,7,5,7,8,0,0,5,7,7,6,4,5,5,5,7,5,0,8,7,0,6,5,0,0,0,4,0,0,7,4,7,6,4,0,0,5,7,7,0,0,0,0,0,0,0,0,0,0,0,0,0,0,0,0,0,0,0,0,0,0,0,0,0,0,0,0],"split_type":[0,0,0,0,0,0,0,0,0,0,0,0,0,0,0,0,0,0,0,0,0,0,0,0,0,0,0,0,0,0,0,0,0,0,0,0,0,0,0,0,0,0,0,0,0,0,0,0,0,0,0,0,0,0,0,0,0,0,0,0,0,0,0,0,0,0,0,0,0,0,0,0,0,0,0,0,0],"sum_hessian":[8.22E2,3.02E2,5.2E2,8E1,2.22E2,3.4E2,1.8E2,1.7E1,6.3E1,8.7E1,1.35E2,1.56E2,1.84E2,1.43E2,3.7E1,1.3E1,5E1,4.9E1,3.8E1,8.1E1,5.4E1,5.2E1,1.04E2,1.55E2,2.9E1,1.04E2,3.9E1,1E0,3.6E1,4.6E1,3E0,1.5E1,2.3E1,5.6E1,2.5E1,4E0,5E1,1.4E1,3.8E1,7.4E1,3E1,7.4E1,8.1E1,2.6E1,3E0,2.8E1,7.6E1,2.6E1,1.3E1,4E0,3.2E1,1.6E1,3E1,1.4E1,1E0,1.5E1,8E0,1E0,3E0,3.4E1,1.6E1,4.4E1,3E1,1.1E1,1.9E1,5.3E1,2.1E1,1.3E1,6.8E1,1.2E1,1.4E1,5E1,2.6E1,7E0,1.9E1,1.1E1,2E0],"tree_param":{"num_deleted":"0","num_feature":"9","num_nodes":"77","size_leaf_vector":"1"}},{"base_weights":[-2.321483E-2,4.354779E1,-2.6574251E1,7.6671715E1,2.9984108E1,-1.0553351E1,-5.581383E1,9.089698E1,6.0426514E1,1.943754E1,4.0450577E1,-2.1456112E1,-7.676317E-1,-4.8341553E1,-9.664306E0,1.2735412E1,8.224456E0,6.146608E0,7.3429567E-1,2.5209215E1,1.1384553E1,4.7601257E1,3.0774727E1,-3.2310352E1,-1.5772961E1,8.024017E0,-2.025515E1,-6.2021404E1,-2.6244385E1,2.6612446E1,1.6793905E0,6.270758E0,1.415157E1,4.186198E0,5.756063E0,5.8945423E1,2.7043678E1,-3.683152E0,-2.7298644E0,-1.0907138E1,-2.7036306E1,2.9144344E0,2.5894236E1,-1.5678514E1,-7.468765E0,-5.395506E1,-8.787637E1,-1.4683323E1,-4.124261E1,1.9709555E0,2.9516404E0,1.2748922E-1,6.7835134E-1,1.7426213E0,6.6134757E-1,1.6521667E0,6.5420947E0,3.1999187E0,1.2002836E0,-1.4682643E0,-5.074723E-1,-1.8460153E0,-3.1481237E0,5.9301406E-1,-6.3797736E-1,1.8237152E0,3.273747E0,1.1759199E0,-1.8209972E0,-4.463943E0,-6.0211644E0,-9.273411E0,-2.7818582E0,-2.9194539E0,1.4498122E-1,-5.461641E0,-9.91251E-1],"categories":[],"categories_nodes":[],"categories_segments":[],"categories_sizes":[],"default_left":[0,0,0,0,0,0,0,0,0,0,0,0,0,0,0,0,0,0,0,0,0,0,0,0,0,0,0,0,0,0,0,0,0,0,0,0,0,0,0,0,0,0,0,0,0,0,0,0,0,0,0,0,0,0,0,0,0,0,0,0,0,0,0,0,0,0,0,0,0,0,0,0,0,0,0,0,0],"id":2,"left_children":[1,3,5,7,9,11,13,15,17,19,21,23,25,27,-1,-1,-1,-1,-1,29,31,33,35,37,39,41,43,45,47,49,-1,51,53,-1,-1,55,57,-1,-1,59,61,63,65,67,-1,69,71,73,75,-1,-1,-1,-1,-1,-1,-1,-1,-1,-1,-1,-1,-1,-1,-1,-1,-1,-1,-1,-1,-1,-1,-1,-1,-1,-1,-1,-1],"loss_changes":[9.532491E5,1.3787719E5,2.392545E5,1.530575E4,2.3829672E4,3.5405055E4,5.0548938E4,4.0361875E3,2.0319219E3,4.9651562E3,6.215047E3,9.175117E3,3.0316154E4,4.5226594E4,0E0,0E0,0E0,0E0,0E0,3.206328E2,6.0460693E2,1.1342812E3,3.661207E3,1.9546094E2,5.4596816E3,1.1064277E4,1.2530486E4,1.5071406E4,9.971539E3,5.0071094E2,0E0,4.0023193E1,6.4997314E2,0E0,0E0,2.927168E2,3.0445312E3,0E0,0E0,1.5770127E3,6.0058594E2,2.7285786E3,8.1774023E2,3.825921E3,0E0,1.6834844E3,3.5469219E3,8.470336E3,1.0352676E4,0E0,0E0,0E0,0E0,0E0,0E0,0E0,0E0,0E0,0E0,0E0,0E0,0E0,0E0,0E0,0E0,0E0,0E0,0E0,0E0,0E0,0E0,0E0,0E0,0E0,0E0,0E0,0E0],"parents":[2147483647,0,0,1,1,2,2,3,3,4,4,5,5,6,6,7,7,8,8,9,9,10,10,11,11,12,12,13,13,19,19,20,20,21,21,22,22,23,23,24,24,25,25,26,26,27,27,28,28,29,29,31,31,32,32,35,35,36,36,39,39,40,40,41,41,42,42,43,43,45,45,46,46,47,47,48,48],"right_children":[2,4,6,8,10,12,14,16,18,20,22,24,26,28,-1,-1,-1,-1,-1,30,32,34,36,38,40,42,44,46,48,50,-1,52,54,-1,-1,56,58,-1,-1,60,62,64,66,68,-1,70,72,74,76,-1,-1,-1,-1,-1,-1,-1,-1,-1,-1,-1,-1,-1,-1,-1,-1,-1,-1,-1,-1,-1,-1,-1,-1,-1,-1,-1,-1],"split_conditions":[-1.61E2,-1.89E2,-1.31E2,-1.99E2,1.9153847E1,1.6736841E1,4E1,-2.2E2,3.3E1,-1.68E2,6E0,1.5473684E1,1.2E1,1.5277778E1,-9.664306E0,1.2735412E1,8.224456E0,6.146608E0,7.3429567E-1,5E0,1.7384615E1,2.0052631E1,-2E0,1.4842105E1,6E0,1.7947369E1,5.3E1,-1.04E2,2.2E1,1.8470589E1,1.6793905E0,1.7052631E1,4E0,4.186198E0,5.756063E0,8.29717E5,-1.72E2,-3.683152E0,-2.7298644E0,1.6166666E1,-1.44E2,6E0,1.868421E1,-4E0,-7.468765E0,4E0,1.4578947E1,1.638889E1,1.9157894E1,1.9709555E0,2.9516404E0,1.2748922E-1,6.7835134E-1,1.7426213E0,6.6134757E-1,1.6521667E0,6.5420947E0,3.1999187E0,1.2002836E0,-1.4682643E0,-5.074723E-1,-1.8460153E0,-3.1481237E0,5.9301406E-1,-6.3797736E-1,1.8237152E0,3.273747E0,1.1759199E0,-1.8209972E0,-4.463943E0,-6.0211644E0,-9.273411E0,-2.7818582E0,-2.9194539E0,1.4498122E-1,-5.461641E0,-9.91251E-1],"split_indices":[4,4,4,4,7,7,5,4,5,4,5,7,5,7,0,0,0,0,0,5,7,7,6,7,5,7,5,4,5,7,0,7,5,0,0,0,4,0,0,7,4,5,7,6,0,5,7,7,7,0,0,0,0,0,0,0,0,0,0,0,0,0,0,0,0,0,0,0,0,0,0,0,0,0,0,0,0],"split_type":[0,0,0,0,0,0,0,0,0,0,0,0,0,0,0,0,0,0,0,0,0,0,0,0,0,0,0,0,0,0,0,0,0,0,0,0,0,0,0,0,0,0,0,0,0,0,0,0,0,0,0,0,0,0,0,0,0,0,0,0,0,0,0,0,0,0,0,0,0,0,0,0,0,0,0,0,0],"sum_hessian":[8.22E2,3.11E2,5.11E2,8.9E1,2.22E2,3.31E2,1.8E2,4.5E1,4.4E1,1.12E2,1.1E2,1.56E2,1.75E2,1.54E2,2.6E1,6E0,3.9E1,4.3E1,1E0,6.4E1,4.8E1,6.1E1,4.9E1,5.2E1,1.04E2,1.21E2,5.4E1,9.4E1,6E1,5.3E1,1.1E1,1.8E1,3E1,4.2E1,1.9E1,4E0,4.5E1,2.4E1,2.8E1,7.4E1,3E1,9.5E1,2.6E1,5.1E1,3E0,7.4E1,2E1,3.5E1,2.5E1,1.8E1,3.5E1,2E0,1.6E1,2E1,1E1,1E0,3E0,3.3E1,1.2E1,4.4E1,3E1,1.2E1,1.8E1,7.2E1,2.3E1,1.4E1,1.2E1,4E0,4.7E1,3.3E1,4.1E1,1.8E1,2E0,1.8E1,1.7E1,1.7E1,8E0],"tree_param":{"num_deleted":"0","num_feature":"9","num_nodes":"77","size_leaf_vector":"1"}},{"base_weights":[-1.8082758E-2,3.6426453E1,-2.600656E1,6.323388E1,2.1530361E1,-1.2267359E1,-5.248863E1,8.226293E1,5.1044655E1,8.27206E0,2.78392E1,-2.85732E1,-6.573915E0,-4.5835056E1,-9.128509E0,1.1643805E1,7.4225707E0,5.153272E1,6.9758147E-1,2.5185115E0,1.0868322E1,3.247871E1,2.1097374E1,-3.6956813E0,-2.4020864E1,4.3028614E-1,-2.2007902E1,-6.5485695E1,-3.3397194E1,4.138202E0,5.659184E1,1.2780762E-1,4.8985648E-1,1.2257028E1,3.1801045E0,2.6941313E1,4.2624493E0,5.9568343E0,1.8895596E1,-2.1077545E1,-3.0660772E0,-7.072309E0,1.5427652E1,-1.904564E1,-6.9086084E0,-5.6134286E0,-8.819443E1,-4.1133873E1,-1.3068562E1,6.192009E0,4.427141E0,-1.212438E-1,1.11701585E-1,9.506182E-1,1.6133016E0,3.5079575E-1,2.7864074E-2,2.2193418E0,2.9562917E0,2.3781998E0,7.4450535E-1,-2.4017572E0,-1.7313083E0,-1.0209696E0,-2.1341899E-1,1.0784675E0,2.607087E0,-9.997574E-1,-2.5807953E0,-9.147754E0,-2.2757034E0,-2.443933E0,-5.7064686E0,3.5326844E-1,-3.2731073E0],"categories":[],"categories_nodes":[],"categories_segments":[],"categories_sizes":[],"default_left":[0,0,0,0,0,0,0,0,0,0,0,0,0,0,0,0,0,0,0,0,0,0,0,0,0,0,0,0,0,0,0,0,0,0,0,0,0,0,0,0,0,0,0,0,0,0,0,0,0,0,0,0,0,0,0,0,0,0,0,0,0,0,0,0,0,0,0,0,0,0,0,0,0,0,0],"id":3,"left_children":[1,3,5,7,9,11,13,15,17,19,21,23,25,27,-1,-1,-1,29,-1,31,33,35,37,-1,39,41,43,45,47,-1,49,51,-1,53,55,57,-1,-1,59,61,-1,63,65,67,-1,-1,69,71,73,-1,-1,-1,-1,-1,-1,-1,-1,-1,-1,-1,-1,-1,-1,-1,-1,-1,-1,-1,-1,-1,-1,-1,-1,-1,-1],"loss_changes":[7.804419E5,1.3560731E5,1.7436434E5,2.409875E4,1.833879E4,2.9334125E4,3.8150094E4,3.99225E3,1.2966719E3,1.0630815E3,4.0066016E3,2.2418047E3,2.5629824E4,3.2519469E4,0E0,0E0,0E0,1.5609844E3,0E0,1.3593398E2,4.948545E2,3.739414E3,4.2955117E3,0E0,4.4817578E2,1.8562254E4,9.004094E3,6.5166562E3,1.346E4,0E0,4.0973438E2,1.8589478E1,0E0,2.9445117E2,7.5838165E0,7.827344E1,0E0,0E0,3.291963E3,4.9021484E1,0E0,1.6824175E3,2.4367256E3,4.0861777E3,0E0,0E0,9.2596094E2,1.5626664E4,8.6026045E3,0E0,0E0,0E0,0E0,0E0,0E0,0E0,0E0,0E0,0E0,0E0,0E0,0E0,0E0,0E0,0E0,0E0,0E0,0E0,0E0,0E0,0E0,0E0,0E0,0E0,0E0],"parents":[2147483647,0,0,1,1,2,2,3,3,4,4,5,5,6,6,7,7,8,8,9,9,10,10,11,11,12,12,13,13,17,17,19,19,20,20,21,21,22,22,24,24,25,25,26,26,27,27,28,28,30,30,31,31,33,33,34,34,35,35,38,38,39,39,41,41,42,42,43,43,46,46,47,47,48,48],"right_children":[2,4,6,8,10,12,14,16,18,20,22,24,26,28,-1,-1,-1,30,-1,32,34,36,38,-1,40,42,44,46,48,-1,50,52,-1,54,56,58,-1,-1,60,62,-1,64,66,68,-1,-1,70,72,74,-1,-1,-1,-1,-1,-1,-1,-1,-1,-1,-1,-1,-1,-1,-1,-1,-1,-1,-1,-1,-1,-1,-1,-1,-1,-1],"split_conditions":[-1.59E2,-1.84E2,-1.29E2,-1.99E2,1.817647E1,1.5736842E1,4.2E1,-2.2E2,3.3E1,1.7277779E1,5E0,1.4684211E1,1E1,1.4210526E1,-9.128509E0,1.1643805E1,7.4225707E0,2.0526316E1,6.9758147E-1,1.7052631E1,6E0,1.9368422E1,-6E0,-3.6956813E0,5E0,1.731579E1,5.3E1,-1E2,1.7466667E1,4.138202E0,4E0,1.6882353E1,4.8985648E-1,1.7947369E1,1.6E1,1.868421E1,4.2624493E0,5.9568343E0,-1.69E2,1.5277778E1,-3.0660772E0,1.6631578E1,1.8157894E1,-1.46E2,-6.9086084E0,-5.6134286E0,2.7E1,1.2E1,-2.0857143E1,6.192009E0,4.427141E0,-1.212438E-1,1.11701585E-1,9.506182E-1,1.6133016E0,3.5079575E-1,2.7864074E-2,2.2193418E0,2.9562917E0,2.3781998E0,7.4450535E-1,-2.4017572E0,-1.7313083E0,-1.0209696E0,-2.1341899E-1,1.0784675E0,2.607087E0,-9.997574E-1,-2.5807953E0,-9.147754E0,-2.2757034E0,-2.443933E0,-5.7064686E0,3.5326844E-1,-3.2731073E0],"split_indices":[4,4,4,4,7,7,5,4,5,7,5,7,5,7,0,0,0,7,0,7,5,7,6,0,5,7,5,4,7,0,5,7,0,7,2,7,0,0,4,7,0,7,7,4,0,0,3,5,8,0,0,0,0,0,0,0,0,0,0,0,0,0,0,0,0,0,0,0,0,0,0,0,0,0,0],"split_type":[0,0,0,0,0,0,0,0,0,0,0,0,0,0,0,0,0,0,0,0,0,0,0,0,0,0,0,0,0,0,0,0,0,0,0,0,0,0,0,0,0,0,0,0,0,0,0,0,0,0,0,0,0,0,0,0,0,0,0,0,0,0,0,0,0,0,0,0,0,0,0,0,0,0,0],"sum_hessian":[8.22E2,3.42E2,4.8E2,1.21E2,2.21E2,3.17E2,1.63E2,4.5E1,7.6E1,7.2E1,1.49E2,8.1E1,2.36E2,1.41E2,2.2E1,6E0,3.9E1,7.5E1,1E0,2.3E1,4.9E1,8.6E1,6.3E1,2.6E1,5.5E1,1.63E2,7.3E1,5.3E1,8.8E1,2.8E1,4.7E1,1.2E1,1.1E1,4.1E1,8E0,5.8E1,2.8E1,2E0,6.1E1,4.1E1,1.4E1,1.09E2,5.4E1,7E1,3E0,4E1,1.3E1,6.3E1,2.5E1,3E1,1.7E1,5E0,7E0,2.6E1,1.5E1,7E0,1E0,2.4E1,3.4E1,4.2E1,1.9E1,2E1,2.1E1,6.6E1,4.3E1,3.9E1,1.5E1,3.1E1,3.9E1,1.2E1,1E0,3.2E1,3.1E1,1.4E1,1.1E1],"tree_param":{"num_deleted":"0","num_feature":"9","num_nodes":"75","size_leaf_vector":"1"}},{"base_weights":[-1.591857E-2,3.2948414E1,-2.3522676E1,5.7193443E1,1.9476154E1,-1.110016E1,-4.746681E1,7.445112E1,4.6140892E1,7.4917383E0,2.5178728E1,-2.584874E1,-5.950439E0,-3.82269E1,-7.0338165E1,1.1902544E1,6.857325E0,4.6573612E1,6.62703E-1,2.2866707E0,9.840336E0,2.9339323E1,1.9129501E1,-3.1929312E0,-2.0876474E1,2.462972E0,-1.6919954E1,-4.9010403E1,-1.6516556E1,5.9015197E-1,-7.216353E1,3.73865E0,5.1153877E1,1.1429772E-1,4.4495186E-1,1.1776271E1,4.9904575E0,2.444637E1,3.877639E0,5.559711E0,1.70564E1,-1.8005428E0,-2.7221181E0,-5.2647715E0,1.4152082E1,-1.4871367E1,-6.3904634E0,-6.1239986E0,-4.1095337E1,-2.3046144E1,3.386519E0,-5.167823E1,-8.068357E1,5.5927815E0,4.0090213E0,-1.1113993E-1,1.0192833E-1,7.55791E-1,1.422861E0,8.0348617E-1,2.8761956E-1,2.031924E0,2.7004783E0,2.14591E0,6.7377716E-1,-9.295974E-1,-1.7436497E-1,1.1043925E0,3.06435E0,3.288971E-1,-1.6925728E0,-3.4521031E0,-5.3319073E0,-1.1211675E0,-3.661574E0,-2.20244E-1,1.9024557E0,6.527115E-1,-5.5993724E0,-8.549867E0,-4.7173414E0],"categories":[],"categories_nodes":[],"categories_segments":[],"categories_sizes":[],"default_left":[0,0,0,0,0,0,0,0,0,0,0,0,0,0,0,0,0,0,0,0,0,0,0,0,0,0,0,0,0,0,0,0,0,0,0,0,0,0,0,0,0,0,0,0,0,0,0,0,0,0,0,0,0,0,0,0,0,0,0,0,0,0,0,0,0,0,0,0,0,0,0,0,0,0,0,0,0,0,0,0,0],"id":4,"left_children":[1,3,5,7,9,11,13,15,17,19,21,23,25,27,29,-1,-1,31,-1,33,35,37,39,-1,41,43,45,47,49,-1,51,-1,53,55,-1,57,59,61,-1,-1,63,-1,-1,65,67,69,-1,-1,71,73,75,77,79,-1,-1,-1,-1,-1,-1,-1,-1,-1,-1,-1,-1,-1,-1,-1,-1,-1,-1,-1,-1,-1,-1,-1,-1,-1,-1,-1,-1],"loss_changes":[6.3850506E5,1.10922E5,1.4254481E5,1.9835219E4,1.4983297E4,2.3998625E4,3.1969219E4,3.8901406E3,1.0079219E3,8.69895E2,3.2140156E3,1.8126367E3,2.191465E4,2.7050031E4,6.8274688E3,0E0,0E0,1.2855781E3,0E0,1.1225574E2,4.106836E2,3.069289E3,3.8901777E3,0E0,3.8423633E2,1.2269117E4,8.963625E3,5.1303438E3,5.4063604E3,0E0,3.6845312E3,0E0,2.930625E2,1.5552927E1,0E0,2.5453076E2,7.987683E1,8.482031E1,0E0,0E0,2.6720645E3,0E0,0E0,1.1477285E3,2.429503E3,3.786455E3,0E0,0E0,2.2578672E3,4.5677344E3,1.0033044E3,4.3844336E3,8.07375E2,0E0,0E0,0E0,0E0,0E0,0E0,0E0,0E0,0E0,0E0,0E0,0E0,0E0,0E0,0E0,0E0,0E0,0E0,0E0,0E0,0E0,0E0,0E0,0E0,0E0,0E0,0E0,0E0],"parents":[2147483647,0,0,1,1,2,2,3,3,4,4,5,5,6,6,7,7,8,8,9,9,10,10,11,11,12,12,13,13,14,14,17,17,19,19,20,20,21,21,22,22,24,24,25,25,26,26,27,27,28,28,30,30,32,32,33,33,35,35,36,36,37,37,40,40,43,43,44,44,45,45,48,48,49,49,50,50,51,51,52,52],"right_children":[2,4,6,8,10,12,14,16,18,20,22,24,26,28,30,-1,-1,32,-1,34,36,38,40,-1,42,44,46,48,50,-1,52,-1,54,56,-1,58,60,62,-1,-1,64,-1,-1,66,68,70,-1,-1,72,74,76,78,80,-1,-1,-1,-1,-1,-1,-1,-1,-1,-1,-1,-1,-1,-1,-1,-1,-1,-1,-1,-1,-1,-1,-1,-1,-1,-1,-1,-1],"split_conditions":[-1.59E2,-1.84E2,-1.29E2,-1.99E2,1.817647E1,1.5736842E1,2.9E1,-2.23E2,3.3E1,1.7277779E1,5E0,1.4842105E1,6E0,1.5277778E1,-2.2258064E1,1.1902544E1,6.857325E0,2.0526316E1,6.62703E-1,1.7052631E1,4E0,1.9375E1,-6E0,-3.1929312E0,5E0,1.7157894E1,5.3E1,1.3315789E1,1.8052631E1,5.9015197E-1,7E0,3.73865E0,4E0,1.6882353E1,4.4495186E-1,1.7666666E1,-1.63E2,1.8733334E1,3.877639E0,5.559711E0,-1.69E2,-1.8005428E0,-2.7221181E0,1.6368422E1,1.8470589E1,-4E0,-6.3904634E0,-6.1239986E0,1.3E1,1.3E1,-2E0,-1.27E2,1.254096E6,5.5927815E0,4.0090213E0,-1.1113993E-1,1.0192833E-1,7.55791E-1,1.422861E0,8.0348617E-1,2.8761956E-1,2.031924E0,2.7004783E0,2.14591E0,6.7377716E-1,-9.295974E-1,-1.7436497E-1,1.1043925E0,3.06435E0,3.288971E-1,-1.6925728E0,-3.4521031E0,-5.3319073E0,-1.1211675E0,-3.661574E0,-2.20244E-1,1.9024557E0,6.527115E-1,-5.5993724E0,-8.549867E0,-4.7173414E0],"split_indices":[4,4,4,4,7,7,5,4,5,7,5,7,5,7,8,0,0,7,0,7,5,7,6,0,5,7,5,7,7,0,1,0,5,7,0,7,4,7,0,0,4,0,0,7,7,6,0,0,5,5,6,4,0,0,0,0,0,0,0,0,0,0,0,0,0,0,0,0,0,0,0,0,0,0,0,0,0,0,0,0,0],"split_type":[0,0,0,0,0,0,0,0,0,0,0,0,0,0,0,0,0,0,0,0,0,0,0,0,0,0,0,0,0,0,0,0,0,0,0,0,0,0,0,0,0,0,0,0,0,0,0,0,0,0,0,0,0,0,0,0,0,0,0,0,0,0,0,0,0,0,0,0,0,0,0,0,0,0,0,0,0,0,0,0,0],"sum_hessian":[8.22E2,3.42E2,4.8E2,1.21E2,2.21E2,3.17E2,1.63E2,4.5E1,7.6E1,7.2E1,1.49E2,8.1E1,2.36E2,1.18E2,4.5E1,3E0,4.2E1,7.5E1,1E0,2.3E1,4.9E1,8.6E1,6.3E1,3.4E1,4.7E1,1.34E2,1.02E2,7.8E1,4E1,1E0,4.4E1,2.8E1,4.7E1,1.2E1,1.1E1,3.4E1,1.5E1,5.9E1,2.7E1,2E0,6.1E1,3.5E1,1.2E1,8.1E1,5.3E1,9.9E1,3E0,2.8E1,5E1,3E1,1E1,1.5E1,2.9E1,3E1,1.7E1,5E0,7E0,1.4E1,2E1,5E0,1E1,2.6E1,3.3E1,4.2E1,1.9E1,3.7E1,4.4E1,4.6E1,7E0,1E1,8.9E1,3.5E1,1.5E1,1.7E1,1.3E1,8E0,2E0,1E0,1.4E1,2.4E1,5E0],"tree_param":{"num_deleted":"0","num_feature":"9","num_nodes":"81","size_leaf_vector":"1"}},{"base_weights":[-7.7399327E-3,2.980943E1,-2.1270279E1,5.174265E1,1.7621763E1,-9.121811E0,-4.1355465E1,8.147705E0,4.6152534E1,6.793325E0,2.2774126E1,-1.5167691E1,-2.5874367E-3,-3.3035503E1,-6.2493057E1,3.6792057E0,5.2559692E1,1.7701957E0,8.787854E0,2.7191341E1,1.8115372E1,-6.702144E0,-1.9105087E1,7.4695773E0,-2.3964958E1,-3.974765E1,-2.3786423E1,-4.952026E1,-7.947624E1,5.8935924E0,3.6860435E1,-2.1352872E-1,3.4410934E0,1.3233408E0,6.966685E0,2.2269466E1,3.6144311E0,4.7454247E0,1.6259605E1,-1.8352746E0,-8.62837E0,-1.2591369E1,-2.491318E1,5.353438E0,3.7261357E0,-1.7636024E1,-5.911178E0,-3.2312206E1,-4.4820447E0,-1.0432503E1,-4.5164085E1,-6.949873E1,-3.1230322E1,-1.9893128E0,-8.15652E0,3.8137758E0,6.295685E-1,5.5279106E-2,-1.2436707E-1,1.2256368E-1,3.761621E-1,8.745182E-1,3.5380778E-1,1.6641682E0,2.3756824E0,1.9479399E0,5.3391623E-1,-3.4639028E-1,-9.4242506E-2,-4.376497E-1,-1.1634922E0,-1.7342268E0,-6.542403E-1,-1.9606043E0,-2.7812471E0,1.0148435E0,-2.945751E-1,-7.923241E-1,-2.5395324E0,-3.714464E0,-1.6999912E0,-2.2397754E0,3.4418032E-1,5.6064457E-1,-4.7848706E0,-2.8066976E0,-7.406511E0,-2.2509341E0,-5.612642E0],"categories":[],"categories_nodes":[],"categories_segments":[],"categories_sizes":[],"default_left":[0,0,0,0,0,0,0,0,0,0,0,0,0,0,0,0,0,0,0,0,0,0,0,0,0,0,0,0,0,0,0,0,0,0,0,0,0,0,0,0,0,0,0,0,0,0,0,0,0,0,0,0,0,0,0,0,0,0,0,0,0,0,0,0,0,0,0,0,0,0,0,0,0,0,0,0,0,0,0,0,0,0,0,0,0,0,0,0,0],"id":5,"left_children":[1,3,5,7,9,11,13,-1,15,17,19,21,23,25,27,-1,29,31,33,35,37,39,41,43,45,47,49,51,53,-1,55,57,59,-1,61,63,-1,-1,65,67,69,71,73,75,-1,77,-1,79,-1,81,83,85,87,-1,-1,-1,-1,-1,-1,-1,-1,-1,-1,-1,-1,-1,-1,-1,-1,-1,-1,-1,-1,-1,-1,-1,-1,-1,-1,-1,-1,-1,-1,-1,-1,-1,-1,-1,-1],"loss_changes":[5.224068E5,9.077716E4,1.169888E5,1.6518312E4,1.2231117E4,1.6595217E4,2.9766906E4,0E0,4.3635E3,7.1581445E2,2.5942266E3,5.905082E3,2.1844152E4,7.24925E3,7.0802812E3,0E0,3.8337188E3,7.365599E1,3.2880444E2,2.4999883E3,3.3663105E3,5.372715E2,4.3396797E3,5.663574E3,5.4083184E3,1.3806484E3,1.608641E4,9.157086E3,8.667344E2,0E0,5.407129E2,9.37109E0,3.9110107E0,0E0,2.068717E2,3.1544922E1,0E0,0E0,2.462791E3,2.2909687E1,4.8598584E2,1.6108223E3,4.3947266E2,3.5318176E3,0E0,1.7582598E3,0E0,1.8843945E3,0E0,6.2194414E3,3.2668477E3,5.699219E2,2.6447637E3,0E0,0E0,0E0,0E0,0E0,0E0,0E0,0E0,0E0,0E0,0E0,0E0,0E0,0E0,0E0,0E0,0E0,0E0,0E0,0E0,0E0,0E0,0E0,0E0,0E0,0E0,0E0,0E0,0E0,0E0,0E0,0E0,0E0,0E0,0E0,0E0],"parents":[2147483647,0,0,1,1,2,2,3,3,4,4,5,5,6,6,8,8,9,9,10,10,11,11,12,12,13,13,14,14,16,16,17,17,18,18,19,19,20,20,21,21,22,22,23,23,24,24,25,25,26,26,27,27,28,28,30,30,31,31,32,32,34,34,35,35,38,38,39,39,40,40,41,41,42,42,43,43,45,45,47,47,49,49,50,50,51,51,52,52],"right_children":[2,4,6,8,10,12,14,-1,16,18,20,22,24,26,28,-1,30,32,34,36,38,40,42,44,46,48,50,52,54,-1,56,58,60,-1,62,64,-1,-1,66,68,70,72,74,76,-1,78,-1,80,-1,82,84,86,88,-1,-1,-1,-1,-1,-1,-1,-1,-1,-1,-1,-1,-1,-1,-1,-1,-1,-1,-1,-1,-1,-1,-1,-1,-1,-1,-1,-1,-1,-1,-1,-1,-1,-1,-1,-1],"split_conditions":[-1.59E2,-1.84E2,-1.31E2,-2.12E2,1.817647E1,1.7052631E1,-1.03E2,8.147705E0,2.1052631E1,1.7263159E1,3E0,-1.47E2,2.4E1,1.5277778E1,-2E0,3.6792057E0,6E0,1.6944445E1,-1.68E2,1.9444445E1,-6E0,-1.54E2,1E0,1.938889E1,5.3E1,4E0,2.4E1,1.4578947E1,1E0,5.8935924E0,3.3E1,2.4E1,1.7052631E1,1.3233408E0,4E0,1.85625E1,3.6144311E0,4.7454247E0,-1.68E2,1.65E1,1E0,1.5842105E1,-1.4E2,6E0,3.7261357E0,-1.46E2,-5.911178E0,1.4263158E1,-4.4820447E0,1.638889E1,-8E0,-1.536E2,4.4E1,-1.9893128E0,-8.15652E0,3.8137758E0,6.295685E-1,5.5279106E-2,-1.2436707E-1,1.2256368E-1,3.761621E-1,8.745182E-1,3.5380778E-1,1.6641682E0,2.3756824E0,1.9479399E0,5.3391623E-1,-3.4639028E-1,-9.4242506E-2,-4.376497E-1,-1.1634922E0,-1.7342268E0,-6.542403E-1,-1.9606043E0,-2.7812471E0,1.0148435E0,-2.945751E-1,-7.923241E-1,-2.5395324E0,-3.714464E0,-1.6999912E0,-2.2397754E0,3.4418032E-1,5.6064457E-1,-4.7848706E0,-2.8066976E0,-7.406511E0,-2.2509341E0,-5.612642E0],"split_indices":[4,4,4,4,7,7,4,0,7,7,5,4,5,7,6,0,5,7,4,7,6,4,5,7,5,5,5,7,5,0,5,3,7,0,5,7,0,0,4,7,5,7,4,5,0,4,0,7,0,7,6,8,5,0,0,0,0,0,0,0,0,0,0,0,0,0,0,0,0,0,0,0,0,0,0,0,0,0,0,0,0,0,0,0,0,0,0,0,0],"split_type":[0,0,0,0,0,0,0,0,0,0,0,0,0,0,0,0,0,0,0,0,0,0,0,0,0,0,0,0,0,0,0,0,0,0,0,0,0,0,0,0,0,0,0,0,0,0,0,0,0,0,0,0,0,0,0,0,0,0,0,0,0,0,0,0,0,0,0,0,0,0,0,0,0,0,0,0,0,0,0,0,0,0,0,0,0,0,0,0,0],"sum_hessian":[8.22E2,3.42E2,4.8E2,1.21E2,2.21E2,3E2,1.8E2,1.7E1,1.04E2,7.2E1,1.49E2,1.8E2,1.2E2,1.31E2,4.9E1,4.5E1,5.9E1,2.1E1,5.1E1,7.4E1,7.5E1,5.8E1,1.22E2,9.2E1,2.8E1,7.4E1,5.7E1,3E1,1.9E1,4E1,1.9E1,1E1,1.1E1,1.3E1,3.8E1,5E1,2.4E1,3E0,7.2E1,1.7E1,4.1E1,5.9E1,6.3E1,8.7E1,5E0,2.5E1,3E0,3.3E1,4.1E1,3.6E1,2.1E1,1.3E1,1.7E1,1E0,1.8E1,1.8E1,1E0,6E0,4E0,2E0,9E0,2.4E1,1.4E1,1.3E1,3.7E1,5.5E1,1.7E1,5E0,1.2E1,1.8E1,2.3E1,3.2E1,2.7E1,2.5E1,3.8E1,5.5E1,3.2E1,1.2E1,1.3E1,2.4E1,9E0,1.9E1,1.7E1,1E0,2E1,2E0,1.1E1,1.4E1,3E0],"tree_param":{"num_deleted":"0","num_feature":"9","num_nodes":"89","size_leaf_vector":"1"}},{"base_weights":[-2.9053105E-2,2.6945187E1,-1.9264261E1,4.6750057E1,1.5940055E1,-9.048603E0,-3.8955208E1,8.453208E0,4.2992798E1,6.1548343E0,2.0595928E1,-2.2158882E1,-5.190349E0,-3.3830296E1,-6.8902275E1,5.01137E1,3.4284523E1,4.3831363E0,1.1324848E1,2.4574268E1,1.6398935E1,-2.733664E0,-1.8638048E1,1.3134526E0,-1.3998476E1,-4.7695873E1,-2.3103092E1,-3.4769737E1,-7.228367E1,4.245119E0,5.591246E1,3.4705703E0,5.9808964E-1,9.6062295E-2,5.550155E0,1.2950801E0,4.5072083E0,2.0121744E1,3.2674446E0,4.3895183E0,1.4667648E1,-1.6342716E0,-2.3779595E0,-4.4158626E0,1.27447195E1,-1.22659445E1,-5.4678407E0,-4.017908E0,-6.632565E1,-2.6203379E1,8.849972E0,-8.661637E-1,-4.0585227E0,-7.3897448E0,-2.0810928E0,5.99128E0,3.6922395E0,-9.4508365E-2,8.64914E-2,5.940594E-1,1.3166139E-1,1.7765199E-1,5.7354945E-1,1.5096396E0,2.144367E0,1.781031E0,5.44908E-1,-7.9486436E-1,-4.030868E-2,9.03848E-1,2.311023E0,-2.7039906E-1,-1.5672195E0,-6.8227572E0,-1.8898468E0,-1.3753849E0,-4.0038447E0,1.5870076E0,-8.1402284E-1],"categories":[],"categories_nodes":[],"categories_segments":[],"categories_sizes":[],"default_left":[0,0,0,0,0,0,0,0,0,0,0,0,0,0,0,0,0,0,0,0,0,0,0,0,0,0,0,0,0,0,0,0,0,0,0,0,0,0,0,0,0,0,0,0,0,0,0,0,0,0,0,0,0,0,0,0,0,0,0,0,0,0,0,0,0,0,0,0,0,0,0,0,0,0,0,0,0,0,0],"id":6,"left_children":[1,3,5,7,9,11,13,-1,15,17,19,21,23,25,27,29,31,33,35,37,39,-1,41,43,45,47,49,51,53,-1,55,-1,-1,57,59,-1,61,63,-1,-1,65,-1,-1,67,69,71,-1,-1,73,75,77,-1,-1,-1,-1,-1,-1,-1,-1,-1,-1,-1,-1,-1,-1,-1,-1,-1,-1,-1,-1,-1,-1,-1,-1,-1,-1,-1,-1],"loss_changes":[4.2753684E5,7.401345E4,9.640355E4,1.3684469E4,9.987281E3,1.5970314E4,2.2839094E4,0E0,5.2890938E3,6.1902026E2,2.1015664E3,8.030547E2,1.4168105E4,2.0019E4,1.4128125E2,2.9242188E2,4.3616406E2,2.7964014E2,1.4116089E2,2.0475E3,2.9740547E3,0E0,1.5424805E2,9.421825E3,6.7296387E3,5.877297E3,8.355113E3,2.5579102E2,1.2342969E2,0E0,1.4283594E2,0E0,0E0,1.1223744E1,6.490796E1,0E0,6.5811157E0,1.5078125E1,0E0,0E0,2.0178213E3,0E0,0E0,1.3577167E3,1.6351372E3,3.2798047E3,0E0,0E0,1.5385156E2,1.236732E4,1.0833699E3,0E0,0E0,0E0,0E0,0E0,0E0,0E0,0E0,0E0,0E0,0E0,0E0,0E0,0E0,0E0,0E0,0E0,0E0,0E0,0E0,0E0,0E0,0E0,0E0,0E0,0E0,0E0,0E0],"parents":[2147483647,0,0,1,1,2,2,3,3,4,4,5,5,6,6,8,8,9,9,10,10,11,11,12,12,13,13,14,14,15,15,16,16,17,17,18,18,19,19,20,20,22,22,23,23,24,24,25,25,26,26,27,27,28,28,30,30,33,33,34,34,36,36,37,37,40,40,43,43,44,44,45,45,48,48,49,49,50,50],"right_children":[2,4,6,8,10,12,14,-1,16,18,20,22,24,26,28,30,32,34,36,38,40,-1,42,44,46,48,50,52,54,-1,56,-1,-1,58,60,-1,62,64,-1,-1,66,-1,-1,68,70,72,-1,-1,74,76,78,-1,-1,-1,-1,-1,-1,-1,-1,-1,-1,-1,-1,-1,-1,-1,-1,-1,-1,-1,-1,-1,-1,-1,-1,-1,-1,-1,-1],"split_conditions":[-1.59E2,-1.84E2,-1.29E2,-2.16E2,1.817647E1,1.5631579E1,4.2E1,8.453208E0,-1.94E2,1.7947369E1,3E0,1.4684211E1,6E0,1.4368421E1,-4E0,2.2210526E1,3.3E1,1.7052631E1,3E0,1.9444445E1,-6E0,-2.733664E0,6E0,1.7263159E1,5.3E1,-1.02E2,1.988889E1,5.01253E5,1.426276E6,4.245119E0,9E0,3.4705703E0,5.9808964E-1,1.6882353E1,8E0,1.2950801E0,1.8E1,1.85625E1,3.2674446E0,4.3895183E0,-1.69E2,-1.6342716E0,-2.3779595E0,1.638889E1,1.8157894E1,-1.52E2,-5.4678407E0,-4.017908E0,2.7E1,1.8E1,-8.6E1,-8.661637E-1,-4.0585227E0,-7.3897448E0,-2.0810928E0,5.99128E0,3.6922395E0,-9.4508365E-2,8.64914E-2,5.940594E-1,1.3166139E-1,1.7765199E-1,5.7354945E-1,1.5096396E0,2.144367E0,1.781031E0,5.44908E-1,-7.9486436E-1,-4.030868E-2,9.03848E-1,2.311023E0,-2.7039906E-1,-1.5672195E0,-6.8227572E0,-1.8898468E0,-1.3753849E0,-4.0038447E0,1.5870076E0,-8.1402284E-1],"split_indices":[4,4,4,4,7,7,5,0,4,7,5,7,5,7,6,7,5,7,5,7,6,0,5,7,5,4,7,0,0,0,5,0,0,7,5,0,3,7,0,0,4,0,0,7,7,4,0,0,3,5,4,0,0,0,0,0,0,0,0,0,0,0,0,0,0,0,0,0,0,0,0,0,0,0,0,0,0,0,0],"split_type":[0,0,0,0,0,0,0,0,0,0,0,0,0,0,0,0,0,0,0,0,0,0,0,0,0,0,0,0,0,0,0,0,0,0,0,0,0,0,0,0,0,0,0,0,0,0,0,0,0,0,0,0,0,0,0,0,0,0,0,0,0,0,0,0,0,0,0,0,0,0,0,0,0,0,0,0,0,0,0],"sum_hessian":[8.22E2,3.42E2,4.8E2,1.21E2,2.21E2,3.17E2,1.63E2,9E0,1.12E2,7.2E1,1.49E2,7.1E1,2.46E2,1.41E2,2.2E1,5.9E1,5.3E1,5.5E1,1.7E1,7.4E1,7.5E1,2.6E1,4.5E1,1.42E2,1.04E2,6E1,8.1E1,3E0,1.9E1,2.9E1,3E1,5.2E1,1E0,1.2E1,4.3E1,1.3E1,4E0,5E1,2.4E1,3E0,7.2E1,3.4E1,1.1E1,9.5E1,4.7E1,1.01E2,3E0,4.5E1,1.5E1,7.4E1,7E0,1E0,2E0,1.8E1,1E0,2.3E1,7E0,5E0,7E0,3.9E1,4E0,2E0,2E0,1.3E1,3.7E1,5.3E1,1.9E1,5E1,4.5E1,3.6E1,1.1E1,2.7E1,7.4E1,1.4E1,1E0,4E1,3.4E1,5E0,2E0],"tree_param":{"num_deleted":"0","num_feature":"9","num_nodes":"79","size_leaf_vector":"1"}},{"base_weights":[-2.6818648E-2,2.4375595E1,-1.7428068E1,4.1859604E1,1.4158344E1,-8.180443E0,-3.5253174E1,6.7020325E1,3.732059E1,5.577218E0,1.8351933E1,-1.9062557E1,-4.380806E0,-2.8075285E1,-5.3055683E1,9.764783E0,5.438497E0,2.9575396E0,4.2930325E1,1.9950441E0,7.6364284E0,2.2058722E1,1.434297E1,-2.3229685E0,-1.4935726E1,7.428746E-2,-1.668653E1,-3.622891E1,-1.1066152E1,-3.5232155E1,-6.138716E1,4.9321704E0,3.1021885E1,8.58436E-2,3.4215793E-1,8.756203E0,2.0599976E0,1.869176E1,3.0821416E0,4.0603035E1,1.2637495E1,-1.2314631E0,-2.023875E0,-4.2693195E0,1.310342E1,-1.4149021E1,-5.057753E0,-4.901045E0,-3.1151556E1,-1.6404264E1,4.498355E0,8.221547E-1,-4.1574085E1,-2.9309814E1,-6.386576E1,3.187659E0,5.6818545E-1,-8.663228E-2,7.89238E-2,6.655117E-1,1.1229252E0,2.3479576E-1,-1.2184143E-2,1.4815323E0,2.0594327E0,1.2505082E0,4.580066E0,1.512137E0,4.0041557E-1,-6.351849E-1,1.4605315E-1,9.989282E-1,2.2692566E0,8.422058E-1,-1.6354065E0,-2.6141849E0,-4.228542E0,-6.5116525E-1,-2.7244992E0,-3.2076348E-2,1.7456259E0,-2.5607383E0,-5.2344027E0,-1.2445405E0,-3.9951522E0,-6.604397E0,-2.4425447E0],"categories":[],"categories_nodes":[],"categories_segments":[],"categories_sizes":[],"default_left":[0,0,0,0,0,0,0,0,0,0,0,0,0,0,0,0,0,0,0,0,0,0,0,0,0,0,0,0,0,0,0,0,0,0,0,0,0,0,0,0,0,0,0,0,0,0,0,0,0,0,0,0,0,0,0,0,0,0,0,0,0,0,0,0,0,0,0,0,0,0,0,0,0,0,0,0,0,0,0,0,0,0,0,0,0,0,0],"id":7,"left_children":[1,3,5,7,9,11,13,15,17,19,21,23,25,27,29,-1,-1,-1,31,33,35,37,39,-1,41,43,45,47,49,51,53,-1,55,57,-1,59,61,63,-1,65,67,-1,-1,69,71,73,-1,-1,75,77,79,-1,81,83,85,-1,-1,-1,-1,-1,-1,-1,-1,-1,-1,-1,-1,-1,-1,-1,-1,-1,-1,-1,-1,-1,-1,-1,-1,-1,-1,-1,-1,-1,-1,-1,-1],"loss_changes":[3.4989738E5,6.0680375E4,7.899959E4,1.18885625E4,7.742535E3,1.3065176E4,1.946711E4,1.6552344E3,3.4662031E3,5.232456E2,1.8532266E3,1.0632051E3,1.2994326E4,1.6102734E4,4.6680234E3,0E0,0E0,0E0,3.1127344E3,7.5965454E1,2.6920215E2,1.6071641E3,2.756249E3,0E0,3.6235547E2,9.959794E3,4.702295E3,3.664961E3,3.3971968E3,5.026668E3,5.133125E2,0E0,3.3867773E2,9.390466E0,0E0,1.2271948E2,5.940624E0,1.0789844E2,0E0,1.1429199E1,1.440541E3,0E0,0E0,1.5843777E3,1.0872422E3,3.1239482E3,0E0,0E0,2.2412227E3,3.0398833E3,6.925017E2,0E0,1.2390137E3,2.2065161E2,7.063906E2,0E0,0E0,0E0,0E0,0E0,0E0,0E0,0E0,0E0,0E0,0E0,0E0,0E0,0E0,0E0,0E0,0E0,0E0,0E0,0E0,0E0,0E0,0E0,0E0,0E0,0E0,0E0,0E0,0E0,0E0,0E0,0E0],"parents":[2147483647,0,0,1,1,2,2,3,3,4,4,5,5,6,6,7,7,8,8,9,9,10,10,11,11,12,12,13,13,14,14,18,18,19,19,20,20,21,21,22,22,24,24,25,25,26,26,27,27,28,28,29,29,30,30,32,32,33,33,35,35,36,36,37,37,39,39,40,40,43,43,44,44,45,45,48,48,49,49,50,50,52,52,53,53,54,54],"right_children":[2,4,6,8,10,12,14,16,18,20,22,24,26,28,30,-1,-1,-1,32,34,36,38,40,-1,42,44,46,48,50,52,54,-1,56,58,-1,60,62,64,-1,66,68,-1,-1,70,72,74,-1,-1,76,78,80,-1,82,84,86,-1,-1,-1,-1,-1,-1,-1,-1,-1,-1,-1,-1,-1,-1,-1,-1,-1,-1,-1,-1,-1,-1,-1,-1,-1,-1,-1,-1,-1,-1,-1,-1],"split_conditions":[-1.59E2,-1.83E2,-1.29E2,-2.12E2,1.817647E1,1.5736842E1,2.9E1,-2.23E2,2.1052631E1,1.7368422E1,3E0,1.5E1,1.2E1,1.5315789E1,7E0,9.764783E0,5.438497E0,2.9575396E0,3E0,1.7052631E1,6E0,1.9588236E1,-6E0,-2.3229685E0,5E0,1.7526316E1,5.3E1,1.2894737E1,1.8052631E1,-1.27E2,-6E0,4.9321704E0,3.3E1,1.6882353E1,3.4215793E-1,1.7947369E1,1.6E1,1.8777779E1,3.0821416E0,-1.81E2,-1.66E2,-1.2314631E0,-2.023875E0,1.7052631E1,1.868421E1,-4E0,-5.057753E0,-4.901045E0,1.3E1,1.3E1,-2E0,8.221547E-1,4E1,1.1E1,1.304106E6,3.187659E0,5.6818545E-1,-8.663228E-2,7.89238E-2,6.655117E-1,1.1229252E0,2.3479576E-1,-1.2184143E-2,1.4815323E0,2.0594327E0,1.2505082E0,4.580066E0,1.512137E0,4.0041557E-1,-6.351849E-1,1.4605315E-1,9.989282E-1,2.2692566E0,8.422058E-1,-1.6354065E0,-2.6141849E0,-4.228542E0,-6.5116525E-1,-2.7244992E0,-3.2076348E-2,1.7456259E0,-2.5607383E0,-5.2344027E0,-1.2445405E0,-3.9951522E0,-6.604397E0,-2.4425447E0],"split_indices":[4,4,4,4,7,7,5,4,7,7,5,7,5,7,1,0,0,0,5,7,5,7,6,0,5,7,5,7,7,4,6,0,5,7,0,7,2,7,0,4,4,0,0,7,7,6,0,0,5,5,6,0,5,1,0,0,0,0,0,0,0,0,0,0,0,0,0,0,0,0,0,0,0,0,0,0,0,0,0,0,0,0,0,0,0,0,0],"split_type":[0,0,0,0,0,0,0,0,0,0,0,0,0,0,0,0,0,0,0,0,0,0,0,0,0,0,0,0,0,0,0,0,0,0,0,0,0,0,0,0,0,0,0,0,0,0,0,0,0,0,0,0,0,0,0,0,0,0,0,0,0,0,0,0,0,0,0,0,0,0,0,0,0,0,0,0,0,0,0,0,0,0,0,0,0,0,0],"sum_hessian":[8.22E2,3.42E2,4.8E2,1.25E2,2.17E2,3.17E2,1.63E2,1.7E1,1.08E2,7.2E1,1.45E2,8.1E1,2.36E2,1.18E2,4.5E1,3E0,1.4E1,4.8E1,6E1,2.7E1,4.5E1,7.3E1,7.2E1,3.8E1,4.3E1,1.74E2,6.2E1,7.9E1,3.9E1,1.6E1,2.9E1,3.7E1,2.3E1,1.2E1,1.5E1,3.7E1,8E0,5.5E1,1.8E1,3E0,6.9E1,3.1E1,1.2E1,1.31E2,4.3E1,5.9E1,3E0,2E1,5.9E1,2.9E1,1E1,2E0,1.4E1,3E0,2.6E1,2.2E1,1E0,5E0,7E0,2.2E1,1.5E1,7E0,1E0,2.1E1,3.4E1,1E0,2E0,5.3E1,1.6E1,9.6E1,3.5E1,3.4E1,9E0,5E0,5.4E1,4.3E1,1.6E1,1.6E1,1.3E1,8E0,2E0,7E0,7E0,2E0,1E0,2.4E1,2E0],"tree_param":{"num_deleted":"0","num_feature":"9","num_nodes":"87","size_leaf_vector":"1"}},{"base_weights":[-2.3838604E-2,1.877486E1,-1.8550692E1,3.546203E1,8.973559E0,-1.2087911E1,-3.8009914E1,5.0242184E1,2.8713451E1,1.4035217E1,3.0847654E0,-2.2651814E1,-8.114026E0,-2.9553198E1,-5.112983E1,9.032425E0,4.53452E1,2.119886E0,3.2275257E1,1.0040575E1,1.7613E1,7.3901E0,1.5262635E-1,-1.6997355E0,-2.5745121E1,-6.624524E0,-5.440614E0,-3.696257E1,-8.153022E0,-7.660812E0,-4.5129845E1,3.3181427E0,4.8489574E1,3.638965E1,2.520354E1,4.5192666E0,1.17923975E1,2.6166073E1,1.4493577E1,3.8600693E0,1.5939458E1,6.1957467E-1,-1.6733826E0,-2.1091228E1,-2.8869338E0,-1.0881444E0,-1.3423389E1,-4.5003567E0,-3.0142488E1,3.4445572E-1,-1.3591822E1,-3.4911766E1,-5.3294285E1,5.058112E0,2.707901E0,3.0375938E0,4.5189266E0,2.5718114E0,5.397766E-1,2.0970689E-1,4.8639017E-1,1.2543919E0,6.184986E-1,2.1580071E0,4.190273E0,2.0590103E0,9.468259E-1,1.4430879E-1,6.476514E-1,1.1156654E0,1.9128453E0,2.0228791E-1,-2.661703E-1,-2.2797256E0,-6.435272E-1,-5.89043E-1,9.935198E-1,-1.5547847E0,9.7847664E-1,-2.4832847E0,-4.3282385E0,-4.1641137E-1,9.2467755E-1,-1.793724E0,-4.7898743E-1,-4.4833403E0,-7.5962627E-1,-1.2397598E0,-5.507548E0],"categories":[],"categories_nodes":[],"categories_segments":[],"categories_sizes":[],"default_left":[0,0,0,0,0,0,0,0,0,0,0,0,0,0,0,0,0,0,0,0,0,0,0,0,0,0,0,0,0,0,0,0,0,0,0,0,0,0,0,0,0,0,0,0,0,0,0,0,0,0,0,0,0,0,0,0,0,0,0,0,0,0,0,0,0,0,0,0,0,0,0,0,0,0,0,0,0,0,0,0,0,0,0,0,0,0,0,0,0],"id":8,"left_children":[1,3,5,7,9,11,13,15,17,19,21,23,25,27,29,-1,31,-1,33,35,37,39,41,-1,43,45,-1,47,49,-1,51,-1,53,55,57,59,61,63,65,67,69,71,-1,73,-1,75,77,-1,79,81,83,85,87,-1,-1,-1,-1,-1,-1,-1,-1,-1,-1,-1,-1,-1,-1,-1,-1,-1,-1,-1,-1,-1,-1,-1,-1,-1,-1,-1,-1,-1,-1,-1,-1,-1,-1,-1,-1],"loss_changes":[2.8698334E5,6.657616E4,5.1731234E4,1.3618875E4,7.6767324E3,1.2955863E4,9.9169375E3,4.933172E3,2.1529531E3,1.8097363E3,1.5263568E3,1.0491328E3,1.5429633E4,1.0005172E4,2.5045938E3,0E0,3.56875E1,0E0,1.1195547E3,6.0442773E2,1.5417676E3,1.4172676E3,5.859802E2,0E0,1.6172266E2,8.379359E3,0E0,1.2758125E3,8.365713E2,0E0,9.7584375E2,0E0,6.33125E1,8.4990625E2,1.5673438E2,4.8260193E0,1.3733398E2,3.9476562E2,1.490082E3,2.1831415E2,1.23291016E-1,3.369178E2,0E0,4.7838086E2,0E0,6.6227393E3,5.0826035E3,0E0,9.484512E2,3.5959842E2,3.348125E2,4.5376934E3,5.555586E2,0E0,0E0,0E0,0E0,0E0,0E0,0E0,0E0,0E0,0E0,0E0,0E0,0E0,0E0,0E0,0E0,0E0,0E0,0E0,0E0,0E0,0E0,0E0,0E0,0E0,0E0,0E0,0E0,0E0,0E0,0E0,0E0,0E0,0E0,0E0,0E0],"parents":[2147483647,0,0,1,1,2,2,3,3,4,4,5,5,6,6,7,7,8,8,9,9,10,10,11,11,12,12,13,13,14,14,16,16,18,18,19,19,20,20,21,21,22,22,24,24,25,25,27,27,28,28,30,30,32,32,33,33,34,34,35,35,36,36,37,37,38,38,39,39,40,40,41,41,43,43,45,45,46,46,48,48,49,49,50,50,51,51,52,52],"right_children":[2,4,6,8,10,12,14,16,18,20,22,24,26,28,30,-1,32,-1,34,36,38,40,42,-1,44,46,-1,48,50,-1,52,-1,54,56,58,60,62,64,66,68,70,72,-1,74,-1,76,78,-1,80,82,84,86,88,-1,-1,-1,-1,-1,-1,-1,-1,-1,-1,-1,-1,-1,-1,-1,-1,-1,-1,-1,-1,-1,-1,-1,-1,-1,-1,-1,-1,-1,-1,-1,-1,-1,-1,-1,-1],"split_conditions":[-1.53E2,-1.79E2,-1.18E2,-1.99E2,-1.63E2,1.5263158E1,2.9E1,-2.23E2,2.017647E1,1.8789474E1,1E0,-1.34E2,4.4E1,1.5611111E1,1.3736842E1,9.032425E0,2.2210526E1,2.119886E0,4E0,1.7777779E1,-2E0,1.7777779E1,3.5E1,-1.6997355E0,3E0,6E0,-5.440614E0,1.2894737E1,1.5E1,-7.660812E0,4.4E1,3.3181427E0,9E0,2.1133333E1,3.3E1,1.7263159E1,6E0,7E0,2E0,1.7368422E1,1.85E1,-1.57E2,-1.6733826E0,1.4736842E1,-2.8869338E0,1.7055555E1,2.2E1,-4.5003567E0,1.6E1,1.136604E6,1.7736841E1,1.8263159E1,-1.13E2,5.058112E0,2.707901E0,3.0375938E0,4.5189266E0,2.5718114E0,5.397766E-1,2.0970689E-1,4.8639017E-1,1.2543919E0,6.184986E-1,2.1580071E0,4.190273E0,2.0590103E0,9.468259E-1,1.4430879E-1,6.476514E-1,1.1156654E0,1.9128453E0,2.0228791E-1,-2.661703E-1,-2.2797256E0,-6.435272E-1,-5.89043E-1,9.935198E-1,-1.5547847E0,9.7847664E-1,-2.4832847E0,-4.3282385E0,-4.1641137E-1,9.2467755E-1,-1.793724E0,-4.7898743E-1,-4.4833403E0,-7.5962627E-1,-1.2397598E0,-5.507548E0],"split_indices":[4,4,4,4,4,7,5,4,7,7,5,4,5,7,7,0,7,0,5,7,6,7,3,0,5,5,0,7,5,0,5,0,5,7,5,7,5,5,5,7,7,4,0,7,0,7,7,0,5,0,7,7,4,0,0,0,0,0,0,0,0,0,0,0,0,0,0,0,0,0,0,0,0,0,0,0,0,0,0,0,0,0,0,0,0,0,0,0,0],"split_type":[0,0,0,0,0,0,0,0,0,0,0,0,0,0,0,0,0,0,0,0,0,0,0,0,0,0,0,0,0,0,0,0,0,0,0,0,0,0,0,0,0,0,0,0,0,0,0,0,0,0,0,0,0,0,0,0,0,0,0,0,0,0,0,0,0,0,0,0,0,0,0,0,0,0,0,0,0,0,0,0,0,0,0,0,0,0,0,0,0],"sum_hessian":[8.22E2,4.08E2,4.14E2,1.5E2,2.58E2,3.12E2,1.02E2,4.5E1,1.05E2,1.38E2,1.2E2,8.4E1,2.28E2,6.4E1,3.8E1,3E0,4.2E1,3.6E1,6.9E1,6.7E1,7.1E1,4.8E1,7.2E1,3.2E1,5.2E1,2.22E2,6E0,4.7E1,1.7E1,5E0,3.3E1,1.1E1,3.1E1,4.1E1,2.8E1,1.7E1,5E1,1.7E1,5.4E1,3.5E1,1.3E1,7.1E1,1E0,2.4E1,2.8E1,1.23E2,9.9E1,1.9E1,2.8E1,7E0,1E1,1.7E1,1.6E1,2.7E1,4E0,2.7E1,1.4E1,2.7E1,1E0,3E0,1.4E1,4.3E1,7E0,1.5E1,2E0,2.3E1,3.1E1,1.9E1,1.6E1,7E0,6E0,5E1,2.1E1,2.1E1,3E0,8.6E1,3.7E1,9.1E1,8E0,2.2E1,6E0,5E0,2E0,6E0,4E0,1.2E1,5E0,1E0,1.5E1],"tree_param":{"num_deleted":"0","num_feature":"9","num_nodes":"89","size_leaf_vector":"1"}},{"base_weights":[-2.0166947E-2,1.701207E1,-1.6806105E1,3.4373806E1,9.249426E0,-1.0921045E1,-3.4526665E1,6.9072685E0,3.1752253E1,1.395624E1,2.7935007E0,-9.936036E0,-4.7232494E0,-2.6799053E1,-4.652072E1,3.760918E1,2.4943947E1,9.074295E0,1.7234755E1,6.7290587E0,1.1355758E-1,-1.8181065E1,-4.3704143E0,-3.64318E1,-1.2768931E1,-7.022411E0,-4.0969517E1,3.1165287E0,4.232759E1,2.9031397E1,2.0715664E1,4.680861E0,1.0937725E1,2.4914156E1,1.4784997E1,2.6819754E0,1.2978034E1,5.56722E-1,-1.589714E0,-1.3962092E1,-2.2821243E1,1.2412405E0,-1.0641354E1,-2.751951E1,-4.307688E1,-1.6426708E1,5.5106896E-1,-3.1711872E1,-4.8361755E1,4.721843E0,3.2317283E0,2.3370044E0,3.6318696E0,2.105308E0,5.127884E-1,2.795712E-1,5.5583954E-1,1.1723068E0,5.643799E-1,1.9854459E0,4.271919E0,1.913071E0,1.0395588E0,-3.766602E-2,3.9503562E-1,8.8383293E-1,1.6595669E0,1.824545E-1,-2.4076274E-1,-1.5930533E0,-1.0833427E0,-1.7384388E0,-2.713493E0,-2.3425496E-1,1.2388867E0,-1.2946168E0,1.3736957E0,-2.8386412E0,-5.957657E-1,-4.402187E0,-1.2561111E0,-6.539663E-1,-1.8949976E0,-4.4066954E-1,8.6303204E-1,-4.069494E0,-6.963252E-1,-1.8382044E0,-5.113358E0],"categories":[],"categories_nodes":[],"categories_segments":[],"categories_sizes":[],"default_left":[0,0,0,0,0,0,0,0,0,0,0,0,0,0,0,0,0,0,0,0,0,0,0,0,0,0,0,0,0,0,0,0,0,0,0,0,0,0,0,0,0,0,0,0,0,0,0,0,0,0,0,0,0,0,0,0,0,0,0,0,0,0,0,0,0,0,0,0,0,0,0,0,0,0,0,0,0,0,0,0,0,0,0,0,0,0,0,0,0],"id":9,"left_children":[1,3,5,7,9,11,13,-1,15,17,19,21,-1,23,25,27,29,31,33,35,37,39,41,43,45,-1,47,-1,49,51,53,55,57,59,61,63,65,67,-1,69,71,73,75,77,79,81,83,85,87,-1,-1,-1,-1,-1,-1,-1,-1,-1,-1,-1,-1,-1,-1,-1,-1,-1,-1,-1,-1,-1,-1,-1,-1,-1,-1,-1,-1,-1,-1,-1,-1,-1,-1,-1,-1,-1,-1,-1,-1],"loss_changes":[2.3558333E5,5.480421E4,4.290186E4,9.268375E3,8.590875E3,1.0725793E4,8.299883E3,0E0,3.807086E3,2.4685137E3,1.2754316E3,1.396249E4,0E0,8.319465E3,2.254664E3,5.659531E2,4.010039E2,5.055088E2,1.4564746E3,1.2044092E3,5.2681244E2,2.0893125E3,6.488232E3,1.0650117E3,1.3732568E3,0E0,7.931367E2,0E0,8.966797E1,2.6514062E2,6.0348633E1,2.0854523E1,1.292417E2,1.1337715E3,1.250834E3,1.21752914E2,1.3786475E2,2.7498825E2,0E0,2.4004297E2,8.650918E2,3.9441953E3,5.0661514E3,1.8603125E2,2.3773438E1,4.2492188E2,3.1841638E2,3.7183633E3,4.7273828E2,0E0,0E0,0E0,0E0,0E0,0E0,0E0,0E0,0E0,0E0,0E0,0E0,0E0,0E0,0E0,0E0,0E0,0E0,0E0,0E0,0E0,0E0,0E0,0E0,0E0,0E0,0E0,0E0,0E0,0E0,0E0,0E0,0E0,0E0,0E0,0E0,0E0,0E0,0E0,0E0],"parents":[2147483647,0,0,1,1,2,2,3,3,4,4,5,5,6,6,8,8,9,9,10,10,11,11,13,13,14,14,15,15,16,16,17,17,18,18,19,19,20,20,21,21,22,22,23,23,24,24,26,26,28,28,29,29,30,30,31,31,32,32,33,33,34,34,35,35,36,36,37,37,39,39,40,40,41,41,42,42,43,43,44,44,45,45,46,46,47,47,48,48],"right_children":[2,4,6,8,10,12,14,-1,16,18,20,22,-1,24,26,28,30,32,34,36,38,40,42,44,46,-1,48,-1,50,52,54,56,58,60,62,64,66,68,-1,70,72,74,76,78,80,82,84,86,88,-1,-1,-1,-1,-1,-1,-1,-1,-1,-1,-1,-1,-1,-1,-1,-1,-1,-1,-1,-1,-1,-1,-1,-1,-1,-1,-1,-1,-1,-1,-1,-1,-1,-1,-1,-1,-1,-1,-1,-1],"split_conditions":[-1.53E2,-1.83E2,-1.18E2,-2.18E2,-1.63E2,4.2E1,2.9E1,6.9072685E0,-1.94E2,1.8789474E1,1E0,1.5736842E1,-4.7232494E0,1.4578947E1,1.3736842E1,2.2210526E1,1E0,1.8E1,-2E0,1.7666666E1,3.5E1,-1.32E2,6E0,6E0,1.7736841E1,-7.022411E0,4.4E1,3.1165287E0,3E0,2.0692308E1,3.3E1,1.7368422E1,6E0,7E0,5E0,1.7055555E1,1.8277779E1,-1.57E2,-1.589714E0,1.5315789E1,3E0,1.7444445E1,2.2E1,1.3684211E1,1.4E1,7E0,1.082601E6,1.8263159E1,-1.12E2,4.721843E0,3.2317283E0,2.3370044E0,3.6318696E0,2.105308E0,5.127884E-1,2.795712E-1,5.5583954E-1,1.1723068E0,5.643799E-1,1.9854459E0,4.271919E0,1.913071E0,1.0395588E0,-3.766602E-2,3.9503562E-1,8.8383293E-1,1.6595669E0,1.824545E-1,-2.4076274E-1,-1.5930533E0,-1.0833427E0,-1.7384388E0,-2.713493E0,-2.3425496E-1,1.2388867E0,-1.2946168E0,1.3736957E0,-2.8386412E0,-5.957657E-1,-4.402187E0,-1.2561111E0,-6.539663E-1,-1.8949976E0,-4.4066954E-1,8.6303204E-1,-4.069494E0,-6.963252E-1,-1.8382044E0,-5.113358E0],"split_indices":[4,4,4,4,4,5,5,0,4,7,5,7,0,7,7,7,5,7,6,7,3,4,5,5,7,0,5,0,5,7,5,7,5,5,5,7,7,4,0,7,5,7,7,7,1,5,0,7,4,0,0,0,0,0,0,0,0,0,0,0,0,0,0,0,0,0,0,0,0,0,0,0,0,0,0,0,0,0,0,0,0,0,0,0,0,0,0,0,0],"split_type":[0,0,0,0,0,0,0,0,0,0,0,0,0,0,0,0,0,0,0,0,0,0,0,0,0,0,0,0,0,0,0,0,0,0,0,0,0,0,0,0,0,0,0,0,0,0,0,0,0,0,0,0,0,0,0,0,0,0,0,0,0,0,0,0,0,0,0,0,0,0,0,0,0,0,0,0,0,0,0,0,0,0,0,0,0,0,0,0,0],"sum_hessian":[8.22E2,4.08E2,4.14E2,1.25E2,2.83E2,3.12E2,1.02E2,7E0,1.18E2,1.63E2,1.2E2,3.05E2,7E0,6.4E1,3.8E1,6.1E1,5.7E1,6.7E1,9.6E1,4.8E1,7.2E1,1.22E2,1.83E2,3.7E1,2.7E1,5E0,3.3E1,2.9E1,3.2E1,2.6E1,3.1E1,2.1E1,4.6E1,2.1E1,7.5E1,3E1,1.8E1,7.1E1,1E0,6.6E1,5.6E1,9.7E1,8.6E1,1.8E1,1.9E1,2.1E1,6E0,1.7E1,1.6E1,1.9E1,1.3E1,1.7E1,9E0,3E1,1E0,8E0,1.3E1,3.9E1,7E0,1.8E1,3E0,3.6E1,3.9E1,9E0,2.1E1,1E1,8E0,5E1,2.1E1,3.8E1,2.8E1,2.7E1,2.9E1,7.4E1,2.3E1,7.9E1,7E0,1.7E1,1E0,1.8E1,1E0,5E0,1.6E1,4E0,2E0,1.2E1,5E0,2E0,1.4E1],"tree_param":{"num_deleted":"0","num_feature":"9","num_nodes":"89","size_leaf_vector":"1"}},{"base_weights":[-1.952172E-2,1.4678218E1,-1.5982334E1,2.915966E1,6.787982E0,-1.1697588E1,-3.570869E1,4.1411358E1,2.3567795E1,1.1461645E1,2.1324708E0,-2.1165564E1,-4.367048E0,-2.394856E1,-4.5550194E1,7.83695E0,3.7010334E1,1.7573721E0,2.6794588E1,1.0465973E1,2.3259207E1,-7.040863E-1,4.71022E0,-3.6617057E0,-1.8332392E1,-9.501598E0,4.402655E0,-3.746209E1,-1.48747225E1,-6.4372096E0,-4.0597645E1,2.9600632E0,4.1161297E1,3.1269726E1,2.1531374E1,4.2507434E0,1.1624405E1,3.1117266E1,3.6928025E-1,2.7945632E-1,-3.0785613E0,9.199387E0,6.6444397E-1,-1.3276286E1,-2.1014345E1,-6.259762E0,-2.1802893E1,1.9490137E0,2.9841056E0,-3.9176598E0,-8.4440005E-1,-1.7277996E1,6.1053365E-1,-2.3237843E1,-4.638027E0,4.487891E0,2.7651505E0,2.4866352E0,3.772291E0,2.18886E0,4.8714906E-1,2.8627092E-1,5.378532E-1,1.369369E0,7.7125466E-1,7.367188E-1,3.384775E0,-1.3498643E-1,1.3563548E-1,-8.77963E-2,-5.1913637E-1,6.884967E-1,1.5120491E0,1.4559568E-1,-1.510228E0,-1.01475E0,-1.4652599E0,-1.8171482E0,-2.4738317E0,-4.8227403E-1,-9.474786E-1,-1.5000843E0,-2.7354875E0,7.845158E-1,-8.204776E-1,-1.8357525E0,-5.0414836E-1,-3.2462792E0,-1.2847213E-1],"categories":[],"categories_nodes":[],"categories_segments":[],"categories_sizes":[],"default_left":[0,0,0,0,0,0,0,0,0,0,0,0,0,0,0,0,0,0,0,0,0,0,0,0,0,0,0,0,0,0,0,0,0,0,0,0,0,0,0,0,0,0,0,0,0,0,0,0,0,0,0,0,0,0,0,0,0,0,0,0,0,0,0,0,0,0,0,0,0,0,0,0,0,0,0,0,0,0,0,0,0,0,0,0,0,0,0,0,0],"id":10,"left_children":[1,3,5,7,9,11,13,15,17,19,21,23,25,27,29,-1,31,-1,33,35,37,39,41,-1,43,45,47,49,51,-1,53,-1,55,57,59,61,63,65,-1,67,69,71,73,75,77,79,81,83,-1,-1,-1,85,-1,87,-1,-1,-1,-1,-1,-1,-1,-1,-1,-1,-1,-1,-1,-1,-1,-1,-1,-1,-1,-1,-1,-1,-1,-1,-1,-1,-1,-1,-1,-1,-1,-1,-1,-1,-1],"loss_changes":[1.9332461E5,4.8820453E4,3.2968656E4,9.369008E3,6.04612E3,2.2533715E4,7.01075E3,4.581578E3,1.5793281E3,1.389332E3,1.0342991E3,5.5450195E3,8.372104E3,3.61183E3,8.3565625E2,0E0,1.0416797E2,0E0,9.048125E2,8.8657715E2,1.4226299E3,1.5966736E2,1.3378873E3,0E0,1.3753516E3,4.529338E3,4.2485923E3,3.159629E2,1.2147456E3,0E0,2.1345469E3,0E0,1.4636719E1,4.6691797E2,9.571582E1,1.904181E1,7.7671484E2,2.0458105E2,0E0,8.780691E1,8.8430756E1,3.755332E2,5.211709E2,4.509131E1,3.7623438E2,3.8859082E2,4.9601074E2,3.895933E3,0E0,0E0,0E0,1.7164453E2,0E0,1.983458E3,0E0,0E0,0E0,0E0,0E0,0E0,0E0,0E0,0E0,0E0,0E0,0E0,0E0,0E0,0E0,0E0,0E0,0E0,0E0,0E0,0E0,0E0,0E0,0E0,0E0,0E0,0E0,0E0,0E0,0E0,0E0,0E0,0E0,0E0,0E0],"parents":[2147483647,0,0,1,1,2,2,3,3,4,4,5,5,6,6,7,7,8,8,9,9,10,10,11,11,12,12,13,13,14,14,16,16,18,18,19,19,20,20,21,21,22,22,24,24,25,25,26,26,27,27,28,28,30,30,32,32,33,33,34,34,35,35,36,36,37,37,39,39,40,40,41,41,42,42,43,43,44,44,45,45,46,46,47,47,51,51,53,53],"right_children":[2,4,6,8,10,12,14,16,18,20,22,24,26,28,30,-1,32,-1,34,36,38,40,42,-1,44,46,48,50,52,-1,54,-1,56,58,60,62,64,66,-1,68,70,72,74,76,78,80,82,84,-1,-1,-1,86,-1,88,-1,-1,-1,-1,-1,-1,-1,-1,-1,-1,-1,-1,-1,-1,-1,-1,-1,-1,-1,-1,-1,-1,-1,-1,-1,-1,-1,-1,-1,-1,-1,-1,-1,-1,-1],"split_conditions":[-1.51E2,-1.79E2,2.7E1,-1.99E2,-1.63E2,1.5473684E1,-1.7294117E1,-2.23E2,2.0263159E1,2.0692308E1,1.74E1,1.2894737E1,1.7052631E1,1.8263159E1,1.3736842E1,7.83695E0,2.2466667E1,1.7573721E0,1E0,1.8E1,1.7E1,-1.55E2,4E0,-3.6617057E0,-1.34E2,1.2E1,1.9944445E1,1.4E1,2.311111E1,-6.4372096E0,4.4E1,2.9600632E0,3E0,2.1133333E1,3.3E1,1.7384615E1,4E0,1E0,3.6928025E-1,1.6882353E1,1E0,1.8277779E1,3.3E1,1E0,7E0,6E0,1.8E1,1.2E1,2.9841056E0,-3.9176598E0,-8.4440005E-1,-9.8E1,6.1053365E-1,1.74E1,-4.638027E0,4.487891E0,2.7651505E0,2.4866352E0,3.772291E0,2.18886E0,4.8714906E-1,2.8627092E-1,5.378532E-1,1.369369E0,7.7125466E-1,7.367188E-1,3.384775E0,-1.3498643E-1,1.3563548E-1,-8.77963E-2,-5.1913637E-1,6.884967E-1,1.5120491E0,1.4559568E-1,-1.510228E0,-1.01475E0,-1.4652599E0,-1.8171482E0,-2.4738317E0,-4.8227403E-1,-9.474786E-1,-1.5000843E0,-2.7354875E0,7.845158E-1,-8.204776E-1,-1.8357525E0,-5.0414836E-1,-3.2462792E0,-1.2847213E-1],"split_indices":[4,4,5,4,4,7,8,4,7,7,7,7,7,7,7,0,7,0,5,7,5,4,5,0,4,5,7,1,7,0,5,0,5,7,5,7,5,2,0,7,5,7,3,5,5,5,5,5,0,0,0,4,0,7,0,0,0,0,0,0,0,0,0,0,0,0,0,0,0,0,0,0,0,0,0,0,0,0,0,0,0,0,0,0,0,0,0,0,0],"split_type":[0,0,0,0,0,0,0,0,0,0,0,0,0,0,0,0,0,0,0,0,0,0,0,0,0,0,0,0,0,0,0,0,0,0,0,0,0,0,0,0,0,0,0,0,0,0,0,0,0,0,0,0,0,0,0,0,0,0,0,0,0,0,0,0,0,0,0,0,0,0,0,0,0,0,0,0,0,0,0,0,0,0,0,0,0,0,0,0,0],"sum_hessian":[8.22E2,4.28E2,3.94E2,1.5E2,2.78E2,3.25E2,6.9E1,4.5E1,1.05E2,1.38E2,1.4E2,1.41E2,1.84E2,3.3E1,3.6E1,3E0,4.2E1,3.9E1,6.6E1,1.29E2,9E0,6.7E1,7.3E1,2E1,1.21E2,1.16E2,6.8E1,1.2E1,2.1E1,5E0,3.1E1,1.8E1,2.4E1,3.3E1,3.3E1,2.1E1,1.08E2,6E0,3E0,4.8E1,1.9E1,3.4E1,3.9E1,4.4E1,7.7E1,9.3E1,2.3E1,6.3E1,5E0,1.1E1,1E0,1.9E1,2E0,9E0,2.2E1,1.7E1,7E0,1.9E1,1.4E1,3.2E1,1E0,1.1E1,1E1,6.9E1,3.9E1,1E0,5E0,1.9E1,2.9E1,1E1,9E0,2.6E1,8E0,3.8E1,1E0,1.6E1,2.8E1,4.7E1,3E1,6.6E1,2.7E1,1.2E1,1.1E1,4E1,2.3E1,1.7E1,2E0,6E0,3E0],"tree_param":{"num_deleted":"0","num_feature":"9","num_nodes":"89","size_leaf_vector":"1"}},{"base_weights":[-1.4730832E-2,1.6420103E1,-1.1734344E1,9.807884E0,2.9274982E1,-4.9313316E0,-2.2982807E1,4.250942E0,1.3019913E1,7.2491794E0,2.7486113E1,-8.479199E0,4.1656506E-1,-1.786765E1,-3.602717E1,2.6114235E0,7.1696787E0,1.4179817E1,2.0994182E0,3.000759E1,1.1482043E1,-3.41894E0,-1.0837542E1,3.8807263E0,-1.9621733E1,-2.4292052E0,-1.4379403E1,-4.575615E1,-2.8588242E1,8.287048E-2,3.5344827E0,8.036744E-1,3.1726422E0,1.1032486E1,1.7453785E1,2.530498E0,-1.9678497E-1,2.3424356E1,3.6512638E1,2.1319377E0,5.6065392E0,-5.2306914E0,-1.832994E0,-6.866023E0,-1.4391504E1,6.5901694E0,-3.0222383E0,-1.4030664E1,-3.5682805E0,-8.462238E0,-2.4469997E1,-2.1936157E0,-5.0340137E1,-1.5044191E1,-4.2032285E0,-5.1610496E-2,1.1671805E-1,4.1274524E-1,1.7575175E-1,4.198082E-1,1.3540421E-1,1.2280331E0,6.814684E-1,1.763833E0,3.098297E-1,-3.4326173E-2,3.038063E-1,2.4859006E0,1.0855281E0,3.8934562E0,1.9838921E0,-4.5959678E-1,8.106638E-1,-2.940257E-1,-6.621599E-1,-4.458779E-3,-3.9761087E-1,-9.1006035E-1,-2.2827266E-1,-1.3209822E0,-2.36128E0,5.1053447E-1,2.6356654E0,5.4479476E-2,-7.728727E-1,-2.302414E-1,-1.6770859E0,-1.2883971E0,3.6736965E-1,7.167887E-1,-2.681812E0,-2.5709789E0,-5.404639E0,-1.7311757E0,1.0618423E0],"categories":[],"categories_nodes":[],"categories_segments":[],"categories_sizes":[],"default_left":[0,0,0,0,0,0,0,0,0,0,0,0,0,0,0,0,0,0,0,0,0,0,0,0,0,0,0,0,0,0,0,0,0,0,0,0,0,0,0,0,0,0,0,0,0,0,0,0,0,0,0,0,0,0,0,0,0,0,0,0,0,0,0,0,0,0,0,0,0,0,0,0,0,0,0,0,0,0,0,0,0,0,0,0,0,0,0,0,0,0,0,0,0,0,0],"id":11,"left_children":[1,3,5,7,9,11,13,15,17,-1,19,21,23,25,27,29,31,33,35,37,39,41,43,45,47,-1,49,51,53,55,57,-1,59,61,63,65,-1,67,69,-1,71,73,75,77,79,81,83,85,-1,87,89,-1,91,93,-1,-1,-1,-1,-1,-1,-1,-1,-1,-1,-1,-1,-1,-1,-1,-1,-1,-1,-1,-1,-1,-1,-1,-1,-1,-1,-1,-1,-1,-1,-1,-1,-1,-1,-1,-1,-1,-1,-1,-1,-1],"loss_changes":[1.5871062E5,2.8867625E4,3.6694438E4,4.0142383E3,6.9753516E3,5.7145967E3,1.143332E4,3.8802942E2,1.7942402E3,0E0,4.2154453E3,2.1229688E3,8.47547E3,2.6088008E3,2.3105703E3,1.3041129E2,7.847302E1,1.1469961E3,3.1279396E1,3.298664E3,8.6306006E2,1.5993921E2,1.6372871E3,1.9650485E3,1.1157202E3,0E0,5.047207E3,1.079543E3,5.0123477E3,1.0993987E1,3.5947144E1,0E0,7.3696747E0,2.7947168E2,1.09603516E2,2.1463531E1,0E0,6.49791E2,1.1255586E3,0E0,3.4334506E2,6.6547E1,1.2630379E2,5.937307E2,3.8546387E2,2.0666733E3,5.0785657E2,4.4345166E2,0E0,3.106057E3,2.569498E3,0E0,7.105859E1,1.1730815E3,0E0,0E0,0E0,0E0,0E0,0E0,0E0,0E0,0E0,0E0,0E0,0E0,0E0,0E0,0E0,0E0,0E0,0E0,0E0,0E0,0E0,0E0,0E0,0E0,0E0,0E0,0E0,0E0,0E0,0E0,0E0,0E0,0E0,0E0,0E0,0E0,0E0,0E0,0E0,0E0,0E0],"parents":[2147483647,0,0,1,1,2,2,3,3,4,4,5,5,6,6,7,7,8,8,10,10,11,11,12,12,13,13,14,14,15,15,16,16,17,17,18,18,19,19,20,20,21,21,22,22,23,23,24,24,26,26,27,27,28,28,29,29,30,30,32,32,33,33,34,34,35,35,37,37,38,38,40,40,41,41,42,42,43,43,44,44,45,45,46,46,47,47,49,49,50,50,52,52,53,53],"right_children":[2,4,6,8,10,12,14,16,18,-1,20,22,24,26,28,30,32,34,36,38,40,42,44,46,48,-1,50,52,54,56,58,-1,60,62,64,66,-1,68,70,-1,72,74,76,78,80,82,84,86,-1,88,90,-1,92,94,-1,-1,-1,-1,-1,-1,-1,-1,-1,-1,-1,-1,-1,-1,-1,-1,-1,-1,-1,-1,-1,-1,-1,-1,-1,-1,-1,-1,-1,-1,-1,-1,-1,-1,-1,-1,-1,-1,-1,-1,-1],"split_conditions":[-1.59E2,2.0473684E1,-1.31E2,1.8470589E1,-2.23E2,1.7052631E1,-1.03E2,1.7947369E1,1.2E1,7.2491794E0,1.8E1,-1.47E2,3E1,1.4210526E1,1.4368421E1,1.7210526E1,5E0,1.9470589E1,2E0,2.1842106E1,-1.93E2,1.6473684E1,1E0,0E0,5.3E1,-2.4292052E0,1.9E1,5E0,4.4E1,1.6944445E1,1.2E1,8.036744E-1,-1.65E2,5E0,3.1E1,1.8947369E1,-1.9678497E-1,1.2E1,3E0,2.1319377E0,-1E0,-1.51E2,4E0,1.6E1,1.8E1,1.9944445E1,-1.53E2,3.36023E5,-3.5682805E0,1.638889E1,-5E0,-2.1936157E0,-6E0,1.4E1,-4.2032285E0,-5.1610496E-2,1.1671805E-1,4.1274524E-1,1.7575175E-1,4.198082E-1,1.3540421E-1,1.2280331E0,6.814684E-1,1.763833E0,3.098297E-1,-3.4326173E-2,3.038063E-1,2.4859006E0,1.0855281E0,3.8934562E0,1.9838921E0,-4.5959678E-1,8.106638E-1,-2.940257E-1,-6.621599E-1,-4.458779E-3,-3.9761087E-1,-9.1006035E-1,-2.2827266E-1,-1.3209822E0,-2.36128E0,5.1053447E-1,2.6356654E0,5.4479476E-2,-7.728727E-1,-2.302414E-1,-1.6770859E0,-1.2883971E0,3.6736965E-1,7.167887E-1,-2.681812E0,-2.5709789E0,-5.404639E0,-1.7311757E0,1.0618423E0],"split_indices":[4,7,4,7,4,7,4,7,5,0,5,4,5,7,7,7,5,7,6,7,4,7,5,6,5,0,5,5,5,7,2,0,4,5,3,7,0,5,6,0,6,4,5,7,5,7,4,0,0,7,6,0,6,2,0,0,0,0,0,0,0,0,0,0,0,0,0,0,0,0,0,0,0,0,0,0,0,0,0,0,0,0,0,0,0,0,0,0,0,0,0,0,0,0,0],"split_type":[0,0,0,0,0,0,0,0,0,0,0,0,0,0,0,0,0,0,0,0,0,0,0,0,0,0,0,0,0,0,0,0,0,0,0,0,0,0,0,0,0,0,0,0,0,0,0,0,0,0,0,0,0,0,0,0,0,0,0,0,0,0,0,0,0,0,0,0,0,0,0,0,0,0,0,0,0,0,0,0,0,0,0,0,0,0,0,0,0,0,0,0,0,0,0],"sum_hessian":[8.22E2,3.42E2,4.8E2,2.27E2,1.15E2,3E2,1.8E2,8.4E1,1.43E2,3E0,1.12E2,1.8E2,1.2E2,1.31E2,4.9E1,5.5E1,2.9E1,1.29E2,1.4E1,9.6E1,1.6E1,5.8E1,1.22E2,1.03E2,1.7E1,4.4E1,8.7E1,1.9E1,3E1,1.5E1,4E1,2.3E1,6E0,6.8E1,6.1E1,1.3E1,1E0,5E1,4.6E1,5E0,1.1E1,2.6E1,3.2E1,5.9E1,6.3E1,7.4E1,2.9E1,1.4E1,3E0,5.6E1,3.1E1,4E0,1.5E1,1.6E1,1.4E1,1E1,5E0,2.9E1,1.1E1,3E0,3E0,5.1E1,1.7E1,6E1,1E0,2E0,1.1E1,4.4E1,6E0,3.9E1,7E0,2E0,9E0,1.1E1,1.5E1,1.8E1,1.4E1,3.9E1,2E1,5.8E1,5E0,7E1,4E0,1.7E1,1.2E1,3E0,1.1E1,4.1E1,1.5E1,2E0,2.9E1,3E0,1.2E1,1.5E1,1E0],"tree_param":{"num_deleted":"0","num_feature":"9","num_nodes":"95","size_leaf_vector":"1"}},{"base_weights":[-1.8523224E-2,1.5543055E1,-1.0153782E1,9.81202E0,2.780012E1,-4.0830107E0,-2.0796999E1,6.239338E0,1.422387E1,6.705491E0,2.5951927E1,-7.6512113E0,4.185574E-1,-1.6121155E1,-3.2725292E1,8.472518E0,3.7574358E0,1.5669249E1,5.085136E0,2.843456E1,1.1140932E1,-3.7636673E0,-1.0256301E1,3.9766192E0,-1.2997427E1,-1.9046103E1,-1.004301E1,-4.133037E1,-2.5610891E1,1.6338094E-1,8.733707E0,1.9355701E0,4.8868737E0,1.2752527E1,1.7864893E1,7.9912263E-1,1.5434036E0,2.4094538E1,3.5588123E1,-4.2895713E-1,1.3651688E1,-6.2168684E0,-2.0990784E0,-6.4227495E0,-1.3694271E1,1.7065719E0,1.6695324E1,-9.551721E0,-3.3006592E0,-1.365964E1,-2.268609E1,7.1291995E-1,-2.236945E1,-1.2568202E0,-4.3696485E0,-1.0340644E1,-3.6679866E0,2.7410889E-2,-2.9037476E-3,6.735542E-1,9.506446E-1,3.7766013E-2,2.3061645E-1,6.620688E-1,2.1974507E-1,1.3218036E0,6.850366E-1,1.8566748E0,1.1302164E0,2.2980216E-1,-1.8694611E-1,2.5188882E0,1.2835706E0,3.7613084E0,1.7940699E0,1.6353846E0,2.807831E-1,-2.9179892E-1,-6.7825526E-1,-8.0703825E-2,-5.5849355E-1,-8.595603E-1,-2.5164032E-1,-3.9925894E-1,-1.4584588E0,4.1285416E-1,-1.8479484E-1,5.816668E-1,2.2100348E0,-3.7375855E-1,-1.552559E0,-1.7461649E0,-2.7400124E-1,-1.5865959E0,-2.416498E0,-6.883499E-1,4.0494996E-1,2.2817993E-1,-2.3716104E0,-1.2688003E0,1.0087509E0],"categories":[],"categories_nodes":[],"categories_segments":[],"categories_sizes":[],"default_left":[0,0,0,0,0,0,0,0,0,0,0,0,0,0,0,0,0,0,0,0,0,0,0,0,0,0,0,0,0,0,0,0,0,0,0,0,0,0,0,0,0,0,0,0,0,0,0,0,0,0,0,0,0,0,0,0,0,0,0,0,0,0,0,0,0,0,0,0,0,0,0,0,0,0,0,0,0,0,0,0,0,0,0,0,0,0,0,0,0,0,0,0,0,0,0,0,0,0,0,0,0],"id":12,"left_children":[1,3,5,7,9,11,13,15,17,-1,19,21,23,25,27,29,31,33,35,37,39,41,43,45,47,49,51,53,55,57,59,61,63,65,67,-1,69,71,73,-1,75,77,79,81,83,85,87,89,-1,91,93,95,97,-1,-1,99,-1,-1,-1,-1,-1,-1,-1,-1,-1,-1,-1,-1,-1,-1,-1,-1,-1,-1,-1,-1,-1,-1,-1,-1,-1,-1,-1,-1,-1,-1,-1,-1,-1,-1,-1,-1,-1,-1,-1,-1,-1,-1,-1,-1,-1],"loss_changes":[1.2996189E5,2.2557062E4,3.2156738E4,3.426211E3,5.732492E3,5.127139E3,9.567672E3,6.6098193E2,1.228002E3,0E0,3.3602422E3,1.7640752E3,6.8300425E3,2.1554531E3,2.0024961E3,1.3963965E2,1.16059875E2,3.165254E2,1.4205524E2,1.7814922E3,6.784354E2,2.8505103E2,1.3090869E3,3.2340503E3,1.7531011E3,1.4155039E3,5.9821514E3,8.7995703E2,4.6914863E3,7.187771E-2,3.324463E1,1.3562874E1,1.5798083E2,1.9351562E1,2.0351562E0,0E0,2.489933E1,3.666621E2,3.972539E2,0E0,3.643064E2,3.432617E1,1.9816678E2,4.1974194E2,4.1683594E2,8.4269653E2,8.7104004E2,8.7975977E2,0E0,1.5297827E3,1.309961E2,6.615262E2,7.512451E2,0E0,0E0,7.9932117E2,0E0,0E0,0E0,0E0,0E0,0E0,0E0,0E0,0E0,0E0,0E0,0E0,0E0,0E0,0E0,0E0,0E0,0E0,0E0,0E0,0E0,0E0,0E0,0E0,0E0,0E0,0E0,0E0,0E0,0E0,0E0,0E0,0E0,0E0,0E0,0E0,0E0,0E0,0E0,0E0,0E0,0E0,0E0,0E0,0E0],"parents":[2147483647,0,0,1,1,2,2,3,3,4,4,5,5,6,6,7,7,8,8,10,10,11,11,12,12,13,13,14,14,15,15,16,16,17,17,18,18,19,19,20,20,21,21,22,22,23,23,24,24,25,25,26,26,27,27,28,28,29,29,30,30,31,31,32,32,33,33,34,34,36,36,37,37,38,38,40,40,41,41,42,42,43,43,44,44,45,45,46,46,47,47,49,49,50,50,51,51,52,52,55,55],"right_children":[2,4,6,8,10,12,14,16,18,-1,20,22,24,26,28,30,32,34,36,38,40,42,44,46,48,50,52,54,56,58,60,62,64,66,68,-1,70,72,74,-1,76,78,80,82,84,86,88,90,-1,92,94,96,98,-1,-1,100,-1,-1,-1,-1,-1,-1,-1,-1,-1,-1,-1,-1,-1,-1,-1,-1,-1,-1,-1,-1,-1,-1,-1,-1,-1,-1,-1,-1,-1,-1,-1,-1,-1,-1,-1,-1,-1,-1,-1,-1,-1,-1,-1,-1,-1],"split_conditions":[-1.6E2,2.0692308E1,-1.31E2,1.9153847E1,-2.23E2,1.6894737E1,-1.03E2,-1.68E2,1.1E1,6.705491E0,1.8E1,-1.44E2,2.4E1,1.5722222E1,1.4578947E1,3.36006E5,1.7384615E1,1.9785715E1,-1.71E2,2.2466667E1,-1E0,1.631579E1,1E0,1.8733334E1,5.3E1,4E0,2.4E1,-1.536E2,3.9E1,3.36002E5,1.8470589E1,1.7052631E1,4E0,7E0,7E0,7.9912263E-1,-1.64E2,1.1E1,3E0,-4.2895713E-1,-1.79E2,-1.51E2,6E0,1.5947369E1,-4E0,4E0,-1.54E2,-1.43E2,-3.3006592E0,1.4578947E1,-5E0,1.638889E1,-8E0,-1.2568202E0,-4.3696485E0,1.4E1,-3.6679866E0,2.7410889E-2,-2.9037476E-3,6.735542E-1,9.506446E-1,3.7766013E-2,2.3061645E-1,6.620688E-1,2.1974507E-1,1.3218036E0,6.850366E-1,1.8566748E0,1.1302164E0,2.2980216E-1,-1.8694611E-1,2.5188882E0,1.2835706E0,3.7613084E0,1.7940699E0,1.6353846E0,2.807831E-1,-2.9179892E-1,-6.7825526E-1,-8.0703825E-2,-5.5849355E-1,-8.595603E-1,-2.5164032E-1,-3.9925894E-1,-1.4584588E0,4.1285416E-1,-1.8479484E-1,5.816668E-1,2.2100348E0,-3.7375855E-1,-1.552559E0,-1.7461649E0,-2.7400124E-1,-1.5865959E0,-2.416498E0,-6.883499E-1,4.0494996E-1,2.2817993E-1,-2.3716104E0,-1.2688003E0,1.0087509E0],"split_indices":[4,7,4,7,4,7,4,4,5,0,5,4,5,7,7,0,7,7,4,7,6,7,5,7,5,5,5,8,5,0,7,7,5,5,5,0,4,5,6,0,4,4,5,7,6,5,4,4,0,7,6,7,6,0,0,2,0,0,0,0,0,0,0,0,0,0,0,0,0,0,0,0,0,0,0,0,0,0,0,0,0,0,0,0,0,0,0,0,0,0,0,0,0,0,0,0,0,0,0,0,0],"split_type":[0,0,0,0,0,0,0,0,0,0,0,0,0,0,0,0,0,0,0,0,0,0,0,0,0,0,0,0,0,0,0,0,0,0,0,0,0,0,0,0,0,0,0,0,0,0,0,0,0,0,0,0,0,0,0,0,0,0,0,0,0,0,0,0,0,0,0,0,0,0,0,0,0,0,0,0,0,0,0,0,0,0,0,0,0,0,0,0,0,0,0,0,0,0,0,0,0,0,0,0,0],"sum_hessian":[8.22E2,3.24E2,4.98E2,2.22E2,1.02E2,3.18E2,1.8E2,1.24E2,9.8E1,3E0,9.9E1,1.77E2,1.41E2,1.31E2,4.9E1,6.4E1,6E1,8.4E1,1.4E1,8.4E1,1.5E1,7.2E1,1.05E2,1.12E2,2.9E1,8.7E1,4.4E1,2E1,2.9E1,2E0,6.2E1,2.4E1,3.6E1,3.9E1,4.5E1,7E0,7E0,5.5E1,2.9E1,2E0,1.3E1,2.8E1,4.4E1,5.1E1,5.4E1,9.6E1,1.6E1,2.6E1,3E0,3.7E1,5E1,2.4E1,2E1,2E0,1.8E1,1.3E1,1.6E1,1E0,1E0,2E1,4.2E1,5E0,1.9E1,2.1E1,1.5E1,3.5E1,4E0,3.9E1,6E0,6E0,1E0,4.9E1,6E0,2.5E1,4E0,1E1,3E0,5E0,2.3E1,3.3E1,1.1E1,3.2E1,1.9E1,5E0,4.9E1,5.7E1,3.9E1,6E0,1E1,1.4E1,1.2E1,2.7E1,1E1,1.1E1,3.9E1,7E0,1.7E1,1E0,1.9E1,1.2E1,1E0],"tree_param":{"num_deleted":"0","num_feature":"9","num_nodes":"101","size_leaf_vector":"1"}},{"base_weights":[-1.4976567E-2,1.3448924E1,-9.616022E0,8.408677E0,2.4950945E1,-5.8159833E0,-2.350533E1,5.2044625E0,1.276691E1,6.202578E0,2.3235596E1,-1.2050954E1,-2.809301E0,-1.8053951E1,-3.1988258E1,2.0878246E0,7.1965475E0,1.3955596E1,2.7878494E0,2.5701193E1,9.540811E0,-9.714625E0,-1.632543E1,-1.8554814E0,-3.6609218E0,-2.482582E1,-8.218772E0,-5.0862517E0,-2.7716675E1,3.7212372E-3,2.850211E0,8.53571E0,3.2155137E0,1.1404564E1,1.5950154E1,5.5268925E-1,7.274666E-1,2.0138926E1,3.0197899E1,1.8179957E0,4.4261703E0,-1.5544449E0,-7.1785164E0,-8.9884406E-1,-1.7787415E0,1.4088122E0,-5.854431E0,-1.829049E1,-2.9793097E1,-1.1030218E1,1.7913121E0,-2.317299E1,-3.6304214E1,6.642151E-2,-7.397995E-2,3.3134013E-1,1.454717E-1,6.7326933E-1,9.62073E-1,6.2839115E-1,2.2388032E-1,1.204164E0,6.4079374E-1,1.6169157E0,2.8284913E-1,1.338815E-1,-1.7759858E-1,2.1985283E0,1.3104745E0,3.2304707E0,1.6415818E0,-4.003601E-1,6.5124846E-1,-9.470939E-1,-5.662416E-1,-1.2030714E-1,8.641655E-1,-1.108785E0,-2.9464424E-1,-1.8984543E0,-2.898758E-1,-3.060054E0,-7.22583E-1,-6.6022724E-1,-1.4857957E0,-3.4570083E-1,6.5918046E-1,-2.9399354E0,-6.26705E-1,-6.012886E-1,-3.900182E0],"categories":[],"categories_nodes":[],"categories_segments":[],"categories_sizes":[],"default_left":[0,0,0,0,0,0,0,0,0,0,0,0,0,0,0,0,0,0,0,0,0,0,0,0,0,0,0,0,0,0,0,0,0,0,0,0,0,0,0,0,0,0,0,0,0,0,0,0,0,0,0,0,0,0,0,0,0,0,0,0,0,0,0,0,0,0,0,0,0,0,0,0,0,0,0,0,0,0,0,0,0,0,0,0,0,0,0,0,0,0,0],"id":13,"left_children":[1,3,5,7,9,11,13,15,17,-1,19,21,23,25,27,29,31,33,35,37,39,41,43,45,-1,47,49,-1,51,53,55,57,59,61,63,-1,65,67,69,-1,71,-1,73,-1,-1,75,77,79,81,83,85,87,89,-1,-1,-1,-1,-1,-1,-1,-1,-1,-1,-1,-1,-1,-1,-1,-1,-1,-1,-1,-1,-1,-1,-1,-1,-1,-1,-1,-1,-1,-1,-1,-1,-1,-1,-1,-1,-1,-1],"loss_changes":[1.06516484E5,1.9674945E4,2.5250422E4,3.285086E3,5.1728047E3,7.0710977E3,4.185586E3,8.541797E2,1.1591543E3,0E0,3.1651367E3,1.0697539E3,8.217501E3,4.125127E3,1.7345586E3,8.896733E1,4.2570947E2,2.7603125E2,6.3701088E1,1.5178594E3,6.706968E2,1.1007891E3,2.9063477E2,3.2847378E3,0E0,6.886582E2,8.077573E2,0E0,4.853711E2,8.348841E0,2.1681488E1,5.847412E1,5.4861084E1,5.9717285E1,9.2203125E1,0E0,1.4621565E1,2.4438086E2,7.763164E2,0E0,2.3711922E2,0E0,1.5142871E2,0E0,0E0,2.6362935E3,1.6870459E3,1.4793945E2,1.4332227E2,2.7478223E2,1.9914958E2,2.4473154E3,5.8262695E2,0E0,0E0,0E0,0E0,0E0,0E0,0E0,0E0,0E0,0E0,0E0,0E0,0E0,0E0,0E0,0E0,0E0,0E0,0E0,0E0,0E0,0E0,0E0,0E0,0E0,0E0,0E0,0E0,0E0,0E0,0E0,0E0,0E0,0E0,0E0,0E0,0E0,0E0],"parents":[2147483647,0,0,1,1,2,2,3,3,4,4,5,5,6,6,7,7,8,8,10,10,11,11,12,12,13,13,14,14,15,15,16,16,17,17,18,18,19,19,20,20,21,21,22,22,23,23,25,25,26,26,28,28,29,29,30,30,31,31,32,32,33,33,34,34,36,36,37,37,38,38,40,40,42,42,45,45,46,46,47,47,48,48,49,49,50,50,51,51,52,52],"right_children":[2,4,6,8,10,12,14,16,18,-1,20,22,24,26,28,30,32,34,36,38,40,42,44,46,-1,48,50,-1,52,54,56,58,60,62,64,-1,66,68,70,-1,72,-1,74,-1,-1,76,78,80,82,84,86,88,90,-1,-1,-1,-1,-1,-1,-1,-1,-1,-1,-1,-1,-1,-1,-1,-1,-1,-1,-1,-1,-1,-1,-1,-1,-1,-1,-1,-1,-1,-1,-1,-1,-1,-1,-1,-1,-1,-1],"split_conditions":[-1.59E2,2.0692308E1,-1.18E2,1.9153847E1,-2.23E2,1.5736842E1,2.9E1,1.7947369E1,1.2E1,6.202578E0,1.8E1,5E0,5.3E1,1.4578947E1,1.3736842E1,1.7210526E1,5E0,1.9785715E1,-1.71E2,2.2E1,-1.93E2,1.4285714E1,-1.37E2,6E0,-3.6609218E0,6E0,1.7736841E1,-5.0862517E0,5.9E1,-1.6E2,1.2E1,1.85E1,-1.71E2,7E0,3.1E1,5.5268925E-1,2E0,7E0,3E0,1.8179957E0,-1E0,-1.5544449E0,1.5E1,-8.9884406E-1,-1.7787415E0,1.7444445E1,1.6944445E1,1.3684211E1,1.4E1,1.2E1,5.48314E5,1.9421053E1,-1.13E2,6.642151E-2,-7.397995E-2,3.3134013E-1,1.454717E-1,6.7326933E-1,9.62073E-1,6.2839115E-1,2.2388032E-1,1.204164E0,6.4079374E-1,1.6169157E0,2.8284913E-1,1.338815E-1,-1.7759858E-1,2.1985283E0,1.3104745E0,3.2304707E0,1.6415818E0,-4.003601E-1,6.5124846E-1,-9.470939E-1,-5.662416E-1,-1.2030714E-1,8.641655E-1,-1.108785E0,-2.9464424E-1,-1.8984543E0,-2.898758E-1,-3.060054E0,-7.22583E-1,-6.6022724E-1,-1.4857957E0,-3.4570083E-1,6.5918046E-1,-2.9399354E0,-6.26705E-1,-6.012886E-1,-3.900182E0],"split_indices":[4,7,4,7,4,7,5,7,5,0,5,5,5,7,7,7,5,7,4,7,4,7,4,5,0,5,7,0,5,4,2,7,4,5,3,0,6,5,6,0,6,0,7,0,0,7,7,7,1,5,0,7,4,0,0,0,0,0,0,0,0,0,0,0,0,0,0,0,0,0,0,0,0,0,0,0,0,0,0,0,0,0,0,0,0,0,0,0,0,0,0],"split_type":[0,0,0,0,0,0,0,0,0,0,0,0,0,0,0,0,0,0,0,0,0,0,0,0,0,0,0,0,0,0,0,0,0,0,0,0,0,0,0,0,0,0,0,0,0,0,0,0,0,0,0,0,0,0,0,0,0,0,0,0,0,0,0,0,0,0,0,0,0,0,0,0,0,0,0,0,0,0,0,0,0,0,0,0,0,0,0,0,0,0,0],"sum_hessian":[8.22E2,3.42E2,4.8E2,2.39E2,1.03E2,3.78E2,1.02E2,1.39E2,1E2,3E0,1E2,1.22E2,2.56E2,6.4E1,3.8E1,5.5E1,8.4E1,8.9E1,1.1E1,8.4E1,1.6E1,8.1E1,4.1E1,2.5E2,6E0,3.7E1,2.7E1,5E0,3.3E1,1.5E1,4E1,6.2E1,2.2E1,4.2E1,4.7E1,4E0,7E0,4E1,4.4E1,5E0,1.1E1,2.3E1,5.8E1,8E0,3.3E1,1.38E2,1.12E2,1.8E1,1.9E1,2.1E1,6E0,2.4E1,9E0,8E0,7E0,2.9E1,1.1E1,2.6E1,3.6E1,4E0,1.8E1,3.6E1,6E0,4.6E1,1E0,6E0,1E0,3E1,1E1,3.7E1,7E0,2E0,9E0,2.1E1,3.7E1,1.02E2,3.6E1,3.9E1,7.3E1,1.7E1,1E0,1.8E1,1E0,1.1E1,1E1,3E0,3E0,1.7E1,7E0,1E0,8E0],"tree_param":{"num_deleted":"0","num_feature":"9","num_nodes":"91","size_leaf_vector":"1"}},{"base_weights":[-2.2177992E-2,1.0354777E1,-1.0249051E1,1.959798E1,4.9259033E0,-7.277364E0,-2.4791264E1,5.737385E0,1.8444592E1,1.6857582E0,7.843933E0,-1.5363436E1,-3.1853218E0,-1.71851E1,-3.2339405E1,1.3869193E1,2.283257E1,-1.2111082E-1,3.2754478E0,8.920835E0,-2.1913058E-1,-2.53522E0,-1.3018358E1,-6.4291396E0,3.2599761E0,-2.9895992E0,-1.2031743E1,-4.662397E0,-2.8268826E1,9.322142E-1,1.5041224E0,2.7143564E1,1.59772005E1,2.5229335E-1,-3.461563E0,4.39151E0,5.530972E-2,8.005559E0,2.2552347E1,1.4139767E0,-1.3174423E0,-1.1367422E1,-1.7025976E1,-4.22458E0,-1.4702005E1,1.455739E0,2.4668198E0,-1.3795442E1,7.2642314E-1,-4.682869E0,-3.0810171E1,2.2490242E0,3.1169097E0,1.883088E0,1.1166958E0,-8.907292E-2,1.5174995E-1,-3.7556154E-1,-9.9565126E-2,2.884846E-1,5.173288E-1,1.0037875E-1,-8.038513E-2,1.015808E0,5.047172E-1,5.159027E-1,2.4591396E0,2.0944965E-1,-1.151207E-1,-1.4041051E0,-8.0449134E-1,-1.7308743E0,-4.978424E-1,-5.8562285E-1,-2.0312472E-1,-1.067742E0,-1.9762753E0,5.3573483E-1,-5.803222E-1,-6.403361E-1,-1.5250539E0,9.8964846E-1,-1.2841481E0,-2.1411455E0,-3.5346153E0],"categories":[],"categories_nodes":[],"categories_segments":[],"categories_sizes":[],"default_left":[0,0,0,0,0,0,0,0,0,0,0,0,0,0,0,0,0,0,0,0,0,0,0,0,0,0,0,0,0,0,0,0,0,0,0,0,0,0,0,0,0,0,0,0,0,0,0,0,0,0,0,0,0,0,0,0,0,0,0,0,0,0,0,0,0,0,0,0,0,0,0,0,0,0,0,0,0,0,0,0,0,0,0,0,0],"id":14,"left_children":[1,3,5,7,9,11,13,-1,15,17,19,21,23,25,27,29,31,33,35,37,39,-1,41,43,45,-1,47,-1,49,-1,-1,51,53,55,57,59,61,63,65,67,-1,69,71,73,75,77,-1,79,-1,81,83,-1,-1,-1,-1,-1,-1,-1,-1,-1,-1,-1,-1,-1,-1,-1,-1,-1,-1,-1,-1,-1,-1,-1,-1,-1,-1,-1,-1,-1,-1,-1,-1,-1,-1],"loss_changes":[8.7446016E4,2.042716E4,1.7753773E4,5.520867E3,2.4355806E3,1.1399699E4,3.4631133E3,0E0,2.6546875E3,3.5656955E2,1.1828594E3,2.3871895E3,4.8505615E3,2.0639385E3,6.5897266E2,2.594795E2,1.7532812E3,7.446632E1,2.369527E2,1.3166465E3,3.7830383E2,0E0,4.4162598E2,2.7465464E3,2.9768792E3,0E0,1.0531172E3,0E0,1.5939824E3,0E0,0E0,1.2321289E2,2.1524951E2,7.9444275E1,6.1135864E-1,4.279187E1,1.5475009E1,6.7468115E2,1.2139307E2,3.0341732E1,0E0,5.177461E2,2.4018555E0,4.2829028E2,4.407417E2,2.0985686E3,0E0,1.8200635E2,0E0,6.028747E2,3.516289E2,0E0,0E0,0E0,0E0,0E0,0E0,0E0,0E0,0E0,0E0,0E0,0E0,0E0,0E0,0E0,0E0,0E0,0E0,0E0,0E0,0E0,0E0,0E0,0E0,0E0,0E0,0E0,0E0,0E0,0E0,0E0,0E0,0E0,0E0],"parents":[2147483647,0,0,1,1,2,2,3,3,4,4,5,5,6,6,8,8,9,9,10,10,11,11,12,12,13,13,14,14,15,15,16,16,17,17,18,18,19,19,20,20,22,22,23,23,24,24,26,26,28,28,31,31,32,32,33,33,34,34,35,35,36,36,37,37,38,38,39,39,41,41,42,42,43,43,44,44,45,45,47,47,49,49,50,50],"right_children":[2,4,6,8,10,12,14,-1,16,18,20,22,24,26,28,30,32,34,36,38,40,-1,42,44,46,-1,48,-1,50,-1,-1,52,54,56,58,60,62,64,66,68,-1,70,72,74,76,78,-1,80,-1,82,84,-1,-1,-1,-1,-1,-1,-1,-1,-1,-1,-1,-1,-1,-1,-1,-1,-1,-1,-1,-1,-1,-1,-1,-1,-1,-1,-1,-1,-1,-1,-1,-1,-1,-1],"split_conditions":[-1.53E2,-1.79E2,2.7E1,-2.23E2,1.8263159E1,1.5142858E1,-1.65E1,5.737385E0,2.1473684E1,1.7368422E1,1.7E1,1.2894737E1,1.7052631E1,1.631579E1,1.3736842E1,1.9588236E1,3E0,6E0,6E0,2.0692308E1,2.7E1,-2.53522E0,7E0,1.1E1,1.9944445E1,-2.9895992E0,2.311111E1,-4.662397E0,3.9E1,9.322142E-1,1.5041224E0,2.2294117E1,-1.94E2,1.6944445E1,1.4E1,1.7666666E1,-1.59E2,3E0,1E0,1.359481E6,-1.3174423E0,1.4285714E1,2E0,1.6105263E1,1.8E1,1.2E1,2.4668198E0,3.9221E5,7.2642314E-1,8.29795E5,5.9E1,2.2490242E0,3.1169097E0,1.883088E0,1.1166958E0,-8.907292E-2,1.5174995E-1,-3.7556154E-1,-9.9565126E-2,2.884846E-1,5.173288E-1,1.0037875E-1,-8.038513E-2,1.015808E0,5.047172E-1,5.159027E-1,2.4591396E0,2.0944965E-1,-1.151207E-1,-1.4041051E0,-8.0449134E-1,-1.7308743E0,-4.978424E-1,-5.8562285E-1,-2.0312472E-1,-1.067742E0,-1.9762753E0,5.3573483E-1,-5.803222E-1,-6.403361E-1,-1.5250539E0,9.8964846E-1,-1.2841481E0,-2.1411455E0,-3.5346153E0],"split_indices":[4,4,5,4,7,7,8,0,7,7,5,7,7,7,7,7,5,5,5,7,3,0,5,5,7,0,7,0,5,0,0,7,4,7,1,7,4,5,2,0,0,7,6,7,5,5,0,0,0,0,5,0,0,0,0,0,0,0,0,0,0,0,0,0,0,0,0,0,0,0,0,0,0,0,0,0,0,0,0,0,0,0,0,0,0],"split_type":[0,0,0,0,0,0,0,0,0,0,0,0,0,0,0,0,0,0,0,0,0,0,0,0,0,0,0,0,0,0,0,0,0,0,0,0,0,0,0,0,0,0,0,0,0,0,0,0,0,0,0,0,0,0,0,0,0,0,0,0,0,0,0,0,0,0,0,0,0,0,0,0,0,0,0,0,0,0,0,0,0,0,0,0,0],"sum_hessian":[8.22E2,4.08E2,4.14E2,1.5E2,2.58E2,3.45E2,6.9E1,3E0,1.47E2,1.23E2,1.35E2,1.15E2,2.3E2,3.6E1,3.3E1,7.4E1,7.3E1,5.8E1,6.5E1,1.19E2,1.6E1,2E1,9.5E1,1.53E2,7.7E1,9E0,2.7E1,5E0,2.8E1,1.7E1,5.7E1,4.3E1,3E1,5.3E1,5E0,4.8E1,1.7E1,1.13E2,6E0,1.5E1,1E0,7E1,2.5E1,1.22E2,3.1E1,7.2E1,5E0,2.5E1,2E0,3E0,2.5E1,2.3E1,2E1,1.7E1,1.3E1,2.8E1,2.5E1,4E0,1E0,1.8E1,3E1,8E0,9E0,6.4E1,4.9E1,1E0,5E0,1.2E1,3E0,3.7E1,3.3E1,2.4E1,1E0,6.9E1,5.3E1,1.9E1,1.2E1,4.7E1,2.5E1,5E0,2E1,1E0,2E0,1E1,1.5E1],"tree_param":{"num_deleted":"0","num_feature":"9","num_nodes":"85","size_leaf_vector":"1"}},{"base_weights":[-2.3870716E-2,1.0280403E1,-8.462859E0,1.98006E1,6.1921945E0,-5.229763E0,-1.9398333E1,5.3070803E0,1.8385033E1,2.4838202E0,8.712219E0,-4.7030597E0,-3.044161E1,-1.4821744E1,-2.6528585E1,1.3750876E0,2.1239153E1,9.544202E-1,4.2746525E0,9.128972E0,-5.61615E0,-7.405537E0,8.3797413E-1,-8.032417E-1,-3.2837741E0,-1.8815361E1,-3.3486683E0,-4.273864E0,-2.2887735E1,2.4541756E1,1.5682092E1,-4.670639E-1,1.6413018E0,5.25498E-1,1.7022461E0,8.238836E0,1.8753143E1,-1.2515701E0,-7.6233673E-1,-6.225988E0,-1.6130781E1,3.8044114E0,-8.409098E0,-2.344931E1,-1.4970729E1,6.2647705E0,-4.9418964E0,-1.9150206E1,-2.9942785E1,1.9283307E0,2.8573117E0,1.7381047E0,8.3449316E-1,-3.7427265E-3,-9.880168E-2,1.978235E-1,-5.9769183E-2,3.1888855E-1,8.717512E-2,9.293275E-1,2.755165E-1,1.0114883E0,2.882373E0,8.502197E-3,-1.6522065E-1,-1.0721262E0,-3.8334116E-1,-8.4250563E-1,-1.8406531E0,1.9825901E-1,2.1547074E0,-1.0831684E0,4.9011293E-1,-6.8425673E-1,-2.3963215E0,-1.1731014E0,-2.3476832E0,9.569092E-2,8.4402466E-1,-6.643151E-1,1.8226548E-1,-2.4549391E0,-4.608263E-1,-3.944931E-1,-3.2393112E0],"categories":[],"categories_nodes":[],"categories_segments":[],"categories_sizes":[],"default_left":[0,0,0,0,0,0,0,0,0,0,0,0,0,0,0,0,0,0,0,0,0,0,0,0,0,0,0,0,0,0,0,0,0,0,0,0,0,0,0,0,0,0,0,0,0,0,0,0,0,0,0,0,0,0,0,0,0,0,0,0,0,0,0,0,0,0,0,0,0,0,0,0,0,0,0,0,0,0,0,0,0,0,0,0,0],"id":15,"left_children":[1,3,5,7,9,11,13,-1,15,17,19,21,23,25,27,-1,29,31,33,35,37,39,41,-1,-1,43,45,-1,47,49,51,53,55,-1,57,59,61,-1,63,65,67,69,71,73,75,77,79,81,83,-1,-1,-1,-1,-1,-1,-1,-1,-1,-1,-1,-1,-1,-1,-1,-1,-1,-1,-1,-1,-1,-1,-1,-1,-1,-1,-1,-1,-1,-1,-1,-1,-1,-1,-1,-1],"loss_changes":[7.165314E4,1.4316914E4,1.5914564E4,4.2519727E3,2.417457E3,4.5178203E3,2.9679219E3,0E0,1.1363984E3,2.8898236E2,9.76834E2,5.172415E3,1.121001E2,2.9152324E3,1.3235234E3,0E0,8.0806445E2,5.837368E1,1.14622925E2,1.1390869E3,1.5790446E2,2.2872793E3,3.1591099E3,0E0,0E0,5.0410547E2,3.0665503E2,0E0,3.2311914E2,2.7576758E2,1.9152441E2,4.4394307E0,3.1358025E1,0E0,1.5739777E1,7.8390137E2,7.523594E2,0E0,3.1566293E0,2.1744902E3,3.184043E2,2.7694656E3,9.559518E2,6.7148438E0,5.2375635E2,2.6564827E1,1.9623975E2,1.8497354E3,5.0924316E2,0E0,0E0,0E0,0E0,0E0,0E0,0E0,0E0,0E0,0E0,0E0,0E0,0E0,0E0,0E0,0E0,0E0,0E0,0E0,0E0,0E0,0E0,0E0,0E0,0E0,0E0,0E0,0E0,0E0,0E0,0E0,0E0,0E0,0E0,0E0,0E0],"parents":[2147483647,0,0,1,1,2,2,3,3,4,4,5,5,6,6,8,8,9,9,10,10,11,11,12,12,13,13,14,14,16,16,17,17,18,18,19,19,20,20,21,21,22,22,25,25,26,26,28,28,29,29,30,30,31,31,32,32,34,34,35,35,36,36,38,38,39,39,40,40,41,41,42,42,43,43,44,44,45,45,46,46,47,47,48,48],"right_children":[2,4,6,8,10,12,14,-1,16,18,20,22,24,26,28,-1,30,32,34,36,38,40,42,-1,-1,44,46,-1,48,50,52,54,56,-1,58,60,62,-1,64,66,68,70,72,74,76,78,80,82,84,-1,-1,-1,-1,-1,-1,-1,-1,-1,-1,-1,-1,-1,-1,-1,-1,-1,-1,-1,-1,-1,-1,-1,-1,-1,-1,-1,-1,-1,-1,-1,-1,-1,-1,-1,-1],"split_conditions":[-1.57E2,-1.85E2,-1.18E2,-2.23E2,1.8473684E1,5.3E1,2.9E1,5.3070803E0,2.1473684E1,1.768421E1,3E1,1.7052631E1,3.36023E5,1.5611111E1,1.3736842E1,1.3750876E0,2E0,1.6944445E1,5E0,2.1473684E1,8.29751E5,1.3E1,2.4E1,-8.032417E-1,-3.2837741E0,1.2894737E1,2E0,-4.273864E0,5.9E1,2.2294117E1,-1.94E2,1.9E1,6E0,5.25498E-1,-1.65E2,1.2E1,1.3595E6,-1.2515701E0,1.426297E6,1.5142858E1,-1.38E2,1.938889E1,2.311111E1,2E0,1.6E1,3.35995E5,1.8894737E1,1.9421053E1,-1.13E2,1.9283307E0,2.8573117E0,1.7381047E0,8.3449316E-1,-3.7427265E-3,-9.880168E-2,1.978235E-1,-5.9769183E-2,3.1888855E-1,8.717512E-2,9.293275E-1,2.755165E-1,1.0114883E0,2.882373E0,8.502197E-3,-1.6522065E-1,-1.0721262E0,-3.8334116E-1,-8.4250563E-1,-1.8406531E0,1.9825901E-1,2.1547074E0,-1.0831684E0,4.9011293E-1,-6.8425673E-1,-2.3963215E0,-1.1731014E0,-2.3476832E0,9.569092E-2,8.4402466E-1,-6.643151E-1,1.8226548E-1,-2.4549391E0,-4.608263E-1,-3.944931E-1,-3.2393112E0],"split_indices":[4,4,4,4,7,5,5,0,7,7,5,7,0,7,7,0,5,7,5,7,0,5,5,0,0,7,5,0,5,7,4,3,5,0,4,5,0,0,0,7,4,7,7,3,5,0,7,7,4,0,0,0,0,0,0,0,0,0,0,0,0,0,0,0,0,0,0,0,0,0,0,0,0,0,0,0,0,0,0,0,0,0,0,0,0],"split_type":[0,0,0,0,0,0,0,0,0,0,0,0,0,0,0,0,0,0,0,0,0,0,0,0,0,0,0,0,0,0,0,0,0,0,0,0,0,0,0,0,0,0,0,0,0,0,0,0,0,0,0,0,0,0,0,0,0,0,0,0,0,0,0,0,0,0,0,0,0,0,0,0,0,0,0,0,0,0,0,0,0,0,0,0,0],"sum_hessian":[8.22E2,3.7E2,4.52E2,1.1E2,2.6E2,3.5E2,1.02E2,3E0,1.07E2,1.06E2,1.54E2,3.44E2,6E0,6.4E1,3.8E1,4.3E1,6.4E1,5.8E1,4.8E1,1.5E2,4E0,2.31E2,1.13E2,1E0,5E0,4.7E1,1.7E1,5E0,3.3E1,3.8E1,2.6E1,1.9E1,3.9E1,3.4E1,1.4E1,1.39E2,1.1E1,1E0,3E0,2.05E2,2.6E1,8.6E1,2.7E1,1.9E1,2.8E1,2E0,1.5E1,2.4E1,9E0,1.9E1,1.9E1,2E1,6E0,1.1E1,8E0,3.4E1,5E0,4E0,1E1,1.16E2,2.3E1,7E0,4E0,2E0,1E0,7E1,1.35E2,7E0,1.9E1,7.9E1,7E0,2.3E1,4E0,1E0,1.8E1,2.2E1,6E0,1E0,1E0,1.2E1,3E0,1.7E1,7E0,1E0,8E0],"tree_param":{"num_deleted":"0","num_feature":"9","num_nodes":"85","size_leaf_vector":"1"}},{"base_weights":[-2.7240405E-2,8.4794445E0,-8.4108715E0,1.61093E1,3.9984114E0,-5.9280524E0,-2.0562939E1,4.90905E0,1.5109071E1,1.3637831E0,6.3711724E0,-1.1610088E1,-1.9632859E0,-3.6228802E0,-1.7657667E1,1.1342254E1,1.8722614E1,1.0264282E-1,2.9440746E0,7.265647E0,-3.175408E-1,-2.0395483E1,-9.829471E0,-2.6368759E0,2.081693E1,-1.18701315E1,-2.6703588E1,8.834042E-1,1.3102658E0,2.2618813E1,1.347359E1,4.9163276E-1,-2.5884705E0,4.0957303E0,5.464253E-1,6.447344E0,1.9554342E1,1.1488533E0,-1.1889924E0,-5.816765E-1,-2.0793753E0,-8.152376E0,-1.3516234E0,-5.899118E-1,-8.932828E0,5.3873295E-1,2.2825384E0,-1.4251048E1,7.170306E0,-7.630798E-1,-2.7223679E1,1.9779953E0,2.8562982E0,1.5904093E0,9.3346804E-1,-6.570719E-2,1.4569505E-1,-3.6137938E-1,-1.0454529E-1,2.5286728E-1,4.5824677E-1,3.121226E-1,5.9906007E-3,8.3212805E-1,3.8822803E-1,4.763321E-1,2.1225626E0,1.7448238E-1,-1.075264E-1,-1.1353788E0,-5.6843126E-1,-2.437017E-1,7.3283964E-1,-1.2589803E0,-4.2514738E-1,-1.8904648E0,-9.815615E-1,1.1736745E0,2.1376546E-2,-1.81493E0,-3.0248437E0],"categories":[],"categories_nodes":[],"categories_segments":[],"categories_sizes":[],"default_left":[0,0,0,0,0,0,0,0,0,0,0,0,0,0,0,0,0,0,0,0,0,0,0,0,0,0,0,0,0,0,0,0,0,0,0,0,0,0,0,0,0,0,0,0,0,0,0,0,0,0,0,0,0,0,0,0,0,0,0,0,0,0,0,0,0,0,0,0,0,0,0,0,0,0,0,0,0,0,0,0,0],"id":16,"left_children":[1,3,5,7,9,11,13,-1,15,17,19,21,23,-1,25,27,29,31,33,35,37,39,41,43,45,47,49,-1,-1,51,53,55,57,59,61,63,65,67,-1,-1,-1,69,-1,71,73,-1,-1,75,77,-1,79,-1,-1,-1,-1,-1,-1,-1,-1,-1,-1,-1,-1,-1,-1,-1,-1,-1,-1,-1,-1,-1,-1,-1,-1,-1,-1,-1,-1,-1,-1],"loss_changes":[5.876514E4,1.3919152E4,1.2399225E4,4.2395977E3,1.6104087E3,7.771874E3,2.5462363E3,0E0,1.8021523E3,2.46826E2,8.159795E2,2.0208906E3,3.2005198E3,0E0,2.8765938E3,2.1541016E2,1.2086367E3,7.45497E1,1.4963162E2,1.0806318E3,3.0214423E2,1.2591797E1,6.3177637E2,2.572248E3,6.2969727E1,1.8701978E3,2.041211E1,0E0,0E0,1.2688672E2,1.9356787E2,6.970695E1,1.0460773E1,1.6634033E1,2.3614134E1,5.156655E2,7.193555E1,2.3084276E1,0E0,0E0,0E0,6.070713E2,0E0,2.2410037E3,7.853347E2,0E0,0E0,5.3686523E2,1.5632419E2,0E0,5.486328E1,0E0,0E0,0E0,0E0,0E0,0E0,0E0,0E0,0E0,0E0,0E0,0E0,0E0,0E0,0E0,0E0,0E0,0E0,0E0,0E0,0E0,0E0,0E0,0E0,0E0,0E0,0E0,0E0,0E0,0E0],"parents":[2147483647,0,0,1,1,2,2,3,3,4,4,5,5,6,6,8,8,9,9,10,10,11,11,12,12,14,14,15,15,16,16,17,17,18,18,19,19,20,20,21,21,22,22,23,23,24,24,25,25,26,26,29,29,30,30,31,31,32,32,33,33,34,34,35,35,36,36,37,37,41,41,43,43,44,44,47,47,48,48,50,50],"right_children":[2,4,6,8,10,12,14,-1,16,18,20,22,24,-1,26,28,30,32,34,36,38,40,42,44,46,48,50,-1,-1,52,54,56,58,60,62,64,66,68,-1,-1,-1,70,-1,72,74,-1,-1,76,78,-1,80,-1,-1,-1,-1,-1,-1,-1,-1,-1,-1,-1,-1,-1,-1,-1,-1,-1,-1,-1,-1,-1,-1,-1,-1,-1,-1,-1,-1,-1,-1],"split_conditions":[-1.53E2,-1.79E2,2.7E1,-2.23E2,1.8263159E1,1.5473684E1,1.4368421E1,4.90905E0,2.1473684E1,1.7526316E1,1.7E1,1.3E1,1.9944445E1,-3.6228802E0,4.4E1,2.0058823E1,2E0,6E0,4E0,2.0692308E1,2.7E1,-1.22E2,7E0,1.2E1,4.19115E5,2.3052631E1,3.36023E5,8.834042E-1,1.3102658E0,2.3052631E1,-1.96E2,1.6944445E1,1.731579E1,1.7666666E1,-1.68E2,3E0,1E0,1.359481E6,-1.1889924E0,-5.816765E-1,-2.0793753E0,1.4285714E1,-1.3516234E0,1.7466667E1,1.7526316E1,5.3873295E-1,2.2825384E0,1.8368422E1,9.81003E5,-7.630798E-1,5.9E1,1.9779953E0,2.8562982E0,1.5904093E0,9.3346804E-1,-6.570719E-2,1.4569505E-1,-3.6137938E-1,-1.0454529E-1,2.5286728E-1,4.5824677E-1,3.121226E-1,5.9906007E-3,8.3212805E-1,3.8822803E-1,4.763321E-1,2.1225626E0,1.7448238E-1,-1.075264E-1,-1.1353788E0,-5.6843126E-1,-2.437017E-1,7.3283964E-1,-1.2589803E0,-4.2514738E-1,-1.8904648E0,-9.815615E-1,1.1736745E0,2.1376546E-2,-1.81493E0,-3.0248437E0],"split_indices":[4,4,5,4,7,7,7,0,7,7,5,7,7,0,5,7,5,5,5,7,3,4,5,5,0,7,0,0,0,7,4,7,7,7,4,5,2,0,0,0,0,7,0,7,7,0,0,7,0,0,5,0,0,0,0,0,0,0,0,0,0,0,0,0,0,0,0,0,0,0,0,0,0,0,0,0,0,0,0,0,0],"split_type":[0,0,0,0,0,0,0,0,0,0,0,0,0,0,0,0,0,0,0,0,0,0,0,0,0,0,0,0,0,0,0,0,0,0,0,0,0,0,0,0,0,0,0,0,0,0,0,0,0,0,0,0,0,0,0,0,0,0,0,0,0,0,0,0,0,0,0,0,0,0,0,0,0,0,0,0,0,0,0,0,0],"sum_hessian":[8.22E2,4.08E2,4.14E2,1.5E2,2.58E2,3.45E2,6.9E1,3E0,1.47E2,1.23E2,1.35E2,1.41E2,2.04E2,9E0,6E1,7.4E1,7.3E1,6.9E1,5.4E1,1.19E2,1.6E1,2.2E1,1.19E2,1.99E2,5E0,3.8E1,2.2E1,3.3E1,4.1E1,4E1,3.3E1,6.1E1,8E0,3.6E1,1.8E1,1.13E2,6E0,1.5E1,1E0,1E0,2.1E1,8.4E1,3.5E1,1.51E2,4.8E1,1E0,4E0,3.4E1,4E0,1E0,2.1E1,3E1,1E1,1.9E1,1.4E1,2.8E1,3.3E1,4E0,4E0,1E1,2.6E1,2E0,1.6E1,6.4E1,4.9E1,1E0,5E0,1.2E1,3E0,3.5E1,4.9E1,1.23E2,2.8E1,2.6E1,2.2E1,1.5E1,1.9E1,2E0,2E0,7E0,1.4E1],"tree_param":{"num_deleted":"0","num_feature":"9","num_nodes":"81","size_leaf_vector":"1"}},{"base_weights":[-2.1102145E-2,9.030109E0,-6.4754567E0,4.8202453E0,1.5722997E1,-4.431362E0,-1.8413908E1,3.0289354E0,7.409502E0,4.5408707E0,1.4680626E1,-9.27922E0,-2.4073138E0,-1.4794236E1,-2.5638906E1,1.3994526E0,4.2944508E0,8.454908E0,2.3074188E0,1.7420422E1,1.0288614E1,-1.263389E0,-7.5296335E0,-1.7472784E-1,-9.102678E0,-2.0578108E1,-9.7214E0,-6.9897616E-1,-2.6194117E1,-2.3105621E-2,1.9080592E0,4.957941E0,1.2389592E0,5.1024137E0,8.799631E0,3.782603E0,3.5940933E-1,1.4106106E0,2.1743934E0,2.349784E0,8.698307E0,-5.5305243E0,-1.1866382E0,-1.2539091E0,1.0679781E1,6.145199E0,-1.0812986E1,-1.4875604E1,-3.0672674E0,-7.5639067E0,-2.517921E0,-7.3222965E-1,-2.677159E0,-6.316681E-2,3.1093806E-2,2.0655671E-1,3.2938845E-2,8.701985E-2,5.088393E-1,1.8439911E-1,-2.1889647E-2,6.166355E-1,-1.7045593E-1,1.0370871E0,7.703579E-1,1.5579936E-1,4.1956353E-1,9.51648E-2,-4.7074128E-2,1.1852278E0,4.7547624E-1,-6.2497604E-1,-3.052065E-1,-3.5450885E-1,3.877261E-2,7.9169315E-1,1.5806941E0,1.2427814E0,-3.2443696E-1,-3.391391E-1,-1.3741049E0,-1.7595015E0,-8.8656443E-1,-1.0858661E0,-1.2064346E-1],"categories":[],"categories_nodes":[],"categories_segments":[],"categories_sizes":[],"default_left":[0,0,0,0,0,0,0,0,0,0,0,0,0,0,0,0,0,0,0,0,0,0,0,0,0,0,0,0,0,0,0,0,0,0,0,0,0,0,0,0,0,0,0,0,0,0,0,0,0,0,0,0,0,0,0,0,0,0,0,0,0,0,0,0,0,0,0,0,0,0,0,0,0,0,0,0,0,0,0,0,0,0,0,0,0],"id":17,"left_children":[1,3,5,7,9,11,13,15,17,-1,19,21,23,25,27,29,31,33,35,37,39,-1,41,43,45,47,49,-1,51,53,55,57,59,61,63,65,67,-1,-1,-1,69,71,-1,73,75,77,79,81,-1,83,-1,-1,-1,-1,-1,-1,-1,-1,-1,-1,-1,-1,-1,-1,-1,-1,-1,-1,-1,-1,-1,-1,-1,-1,-1,-1,-1,-1,-1,-1,-1,-1,-1,-1,-1],"loss_changes":[4.813791E4,9.588633E3,1.16564E4,9.6084766E2,3.417916E3,4.0203281E3,1.4513398E3,2.5588135E2,4.3919336E2,0E0,1.3730527E3,6.150547E2,4.3632188E3,1.2376436E3,4.470215E1,4.1284874E1,1.377948E2,3.715381E1,4.4619263E1,8.109785E2,8.87958E2,0E0,6.452822E2,2.5904675E3,1.9701831E3,8.101406E2,7.4334985E2,0E0,3.2828125E1,3.448993E0,9.763046E0,2.6500732E1,1.2752329E1,7.56909E1,2.8603516E1,1.7327423E0,4.381158E0,0E0,0E0,0E0,5.4066113E2,8.431604E1,0E0,7.5739185E2,1.5816895E2,5.122488E2,1.3876377E3,1.05505615E2,0E0,5.3150366E2,0E0,0E0,0E0,0E0,0E0,0E0,0E0,0E0,0E0,0E0,0E0,0E0,0E0,0E0,0E0,0E0,0E0,0E0,0E0,0E0,0E0,0E0,0E0,0E0,0E0,0E0,0E0,0E0,0E0,0E0,0E0,0E0,0E0,0E0,0E0],"parents":[2147483647,0,0,1,1,2,2,3,3,4,4,5,5,6,6,7,7,8,8,10,10,11,11,12,12,13,13,14,14,15,15,16,16,17,17,18,18,19,19,20,20,22,22,23,23,24,24,25,25,26,26,28,28,29,29,30,30,31,31,32,32,33,33,34,34,35,35,36,36,40,40,41,41,43,43,44,44,45,45,46,46,47,47,49,49],"right_children":[2,4,6,8,10,12,14,16,18,-1,20,22,24,26,28,30,32,34,36,38,40,-1,42,44,46,48,50,-1,52,54,56,58,60,62,64,66,68,-1,-1,-1,70,72,-1,74,76,78,80,82,-1,84,-1,-1,-1,-1,-1,-1,-1,-1,-1,-1,-1,-1,-1,-1,-1,-1,-1,-1,-1,-1,-1,-1,-1,-1,-1,-1,-1,-1,-1,-1,-1,-1,-1,-1,-1],"split_conditions":[-1.59E2,2.0210526E1,-1.11E2,1.9052631E1,-2.23E2,1.5526316E1,-2E0,1.8E1,9E0,4.5408707E0,4E0,1.4210526E1,1.7E1,1.4368421E1,1E0,1.7210526E1,6E0,1.9105263E1,-8.538461E1,2.182353E1,-2E0,-1.263389E0,7E0,1.8263159E1,-4E0,1.5E1,5.9E1,-6.9897616E-1,1E0,1.6882353E1,8E0,3.36002E5,1.2E1,4E0,-1E0,1.9153847E1,1.3E1,1.4106106E0,2.1743934E0,2.349784E0,-1.86E2,-1.31E2,-1.1866382E0,1.6473684E1,1.9210526E1,2.4E1,-1.46E2,1.2769231E1,-3.0672674E0,1.7736841E1,-2.517921E0,-7.3222965E-1,-2.677159E0,-6.316681E-2,3.1093806E-2,2.0655671E-1,3.2938845E-2,8.701985E-2,5.088393E-1,1.8439911E-1,-2.1889647E-2,6.166355E-1,-1.7045593E-1,1.0370871E0,7.703579E-1,1.5579936E-1,4.1956353E-1,9.51648E-2,-4.7074128E-2,1.1852278E0,4.7547624E-1,-6.2497604E-1,-3.052065E-1,-3.5450885E-1,3.877261E-2,7.9169315E-1,1.5806941E0,1.2427814E0,-3.2443696E-1,-3.391391E-1,-1.3741049E0,-1.7595015E0,-8.8656443E-1,-1.0858661E0,-1.2064346E-1],"split_indices":[4,7,4,7,4,7,6,7,5,0,5,7,5,7,5,7,5,7,8,7,6,0,5,7,6,5,5,0,2,7,5,0,5,5,6,7,5,0,0,0,4,4,0,7,7,5,4,7,0,7,0,0,0,0,0,0,0,0,0,0,0,0,0,0,0,0,0,0,0,0,0,0,0,0,0,0,0,0,0,0,0,0,0,0,0],"split_type":[0,0,0,0,0,0,0,0,0,0,0,0,0,0,0,0,0,0,0,0,0,0,0,0,0,0,0,0,0,0,0,0,0,0,0,0,0,0,0,0,0,0,0,0,0,0,0,0,0,0,0,0,0,0,0,0,0,0,0,0,0,0,0,0,0,0,0,0,0,0,0,0,0,0,0,0,0,0,0,0,0,0,0,0,0],"sum_hessian":[8.22E2,3.42E2,4.8E2,2.11E2,1.31E2,4.11E2,6.9E1,1.26E2,8.5E1,3E0,1.28E2,1.2E2,2.91E2,4.8E1,2.1E1,5.6E1,7E1,7E1,1.5E1,7.7E1,5.1E1,3.9E1,8.1E1,2.19E2,7.2E1,2.1E1,2.7E1,1E0,2E1,1.5E1,4.1E1,5.7E1,1.3E1,8E0,6.2E1,8E0,7E0,4.6E1,3.1E1,4E0,4.7E1,5.7E1,2.4E1,2E2,1.9E1,7E0,6.5E1,1.5E1,6E0,2.5E1,2E0,1E0,1.9E1,5E0,1E1,3.7E1,4E0,2E0,5.5E1,9E0,4E0,7E0,1E0,2.2E1,4E1,2E0,6E0,4E0,3E0,2.5E1,2.2E1,4.3E1,1.4E1,8.3E1,1.17E2,1.4E1,5E0,4E0,3E0,1.9E1,4.6E1,9E0,6E0,1.6E1,9E0],"tree_param":{"num_deleted":"0","num_feature":"9","num_nodes":"85","size_leaf_vector":"1"}},{"base_weights":[-1.8610086E-2,6.9535847E0,-6.8899574E0,1.3218432E1,3.2742584E0,-4.8031144E0,-1.7106497E1,4.200306E0,1.2351156E1,1.1159961E0,5.21801E0,-6.908877E0,2.5206447E0,-3.4033208E0,-1.4987848E1,9.215527E0,1.5362251E1,-1.6082661E-1,2.2404892E0,5.9573812E0,-3.080211E-1,-1.3158046E1,-5.1287355E0,1.1686635E0,1.8549643E1,-1.1490356E1,-2.4762173E1,6.0129905E-1,1.0050529E1,1.8577017E1,1.1033791E1,1.7248195E-1,-3.1337993E0,3.0467703E0,-7.885912E-2,5.241809E0,1.6759935E1,1.0634594E0,-1.1125854E0,-1.0699207E1,-1.741782E1,-3.5056233E0,-1.0024297E1,4.02786E0,-4.1548014E0,4.4965822E-1,2.0460937E0,-1.6699284E0,-4.3385253E0,-6.5622103E-1,-2.5538023E0,1.0838542E0,7.6972455E-1,1.6544142E0,2.608754E0,1.3049339E0,7.6108074E-1,-5.308038E-2,9.5028214E-2,-3.6529085E-1,-1.397054E-1,7.5683594E-3,3.1715894E-1,7.465719E-2,-8.138611E-2,6.801617E-1,3.1092218E-1,4.2874297E-1,1.8124115E0,1.6619733E-1,-1.1475754E-1,-1.195686E0,-8.065426E-1,-1.8106896E0,-7.477417E-1,-4.6907002E-1,-1.024607E-1,-7.4480844E-1,-1.4106768E0,1.6991602E-1,1.0166732E0,-5.860599E-1,-2.8156197E-2,-7.0274633E-1,9.5185626E-1],"categories":[],"categories_nodes":[],"categories_segments":[],"categories_sizes":[],"default_left":[0,0,0,0,0,0,0,0,0,0,0,0,0,0,0,0,0,0,0,0,0,0,0,0,0,0,0,0,0,0,0,0,0,0,0,0,0,0,0,0,0,0,0,0,0,0,0,0,0,0,0,0,0,0,0,0,0,0,0,0,0,0,0,0,0,0,0,0,0,0,0,0,0,0,0,0,0,0,0,0,0,0,0,0,0],"id":18,"left_children":[1,3,5,7,9,11,13,-1,15,17,19,21,23,-1,25,27,29,31,33,35,37,39,41,43,45,47,49,-1,51,53,55,57,59,61,63,65,67,69,-1,71,73,75,77,79,81,-1,-1,-1,83,-1,-1,-1,-1,-1,-1,-1,-1,-1,-1,-1,-1,-1,-1,-1,-1,-1,-1,-1,-1,-1,-1,-1,-1,-1,-1,-1,-1,-1,-1,-1,-1,-1,-1,-1,-1],"loss_changes":[3.94765E4,9.384342E3,8.765764E3,3.2508145E3,1.0807146E3,5.353461E3,2.0002383E3,0E0,1.2557949E3,1.7839682E2,5.575017E2,2.9249785E3,1.6686521E3,0E0,1.9033535E3,1.4012549E2,8.247363E2,5.900464E1,1.2366336E2,8.39749E2,2.6405148E2,4.3161523E2,1.6414741E3,1.1278558E3,6.915283E1,1.7529648E3,5.8341797E1,0E0,2.4129395E1,1.9438965E2,1.3525635E2,3.0043268E1,3.0605698E-1,1.7931488E1,1.1528087E1,3.5806494E2,4.1397217E1,2.3080597E1,0E0,3.6058105E1,1.6015625E0,4.6562488E2,4.4183203E2,6.6891327E2,1.7013092E2,0E0,0E0,0E0,8.8663E2,0E0,0E0,0E0,0E0,0E0,0E0,0E0,0E0,0E0,0E0,0E0,0E0,0E0,0E0,0E0,0E0,0E0,0E0,0E0,0E0,0E0,0E0,0E0,0E0,0E0,0E0,0E0,0E0,0E0,0E0,0E0,0E0,0E0,0E0,0E0,0E0],"parents":[2147483647,0,0,1,1,2,2,3,3,4,4,5,5,6,6,8,8,9,9,10,10,11,11,12,12,14,14,15,15,16,16,17,17,18,18,19,19,20,20,21,21,22,22,23,23,24,24,25,25,26,26,28,28,29,29,30,30,31,31,32,32,33,33,34,34,35,35,36,36,37,37,39,39,40,40,41,41,42,42,43,43,44,44,48,48],"right_children":[2,4,6,8,10,12,14,-1,16,18,20,22,24,-1,26,28,30,32,34,36,38,40,42,44,46,48,50,-1,52,54,56,58,60,62,64,66,68,70,-1,72,74,76,78,80,82,-1,-1,-1,84,-1,-1,-1,-1,-1,-1,-1,-1,-1,-1,-1,-1,-1,-1,-1,-1,-1,-1,-1,-1,-1,-1,-1,-1,-1,-1,-1,-1,-1,-1,-1,-1,-1,-1,-1,-1],"split_conditions":[-1.53E2,-1.79E2,2.7E1,-2.23E2,1.8263159E1,1.7052631E1,1.3736842E1,4.200306E0,2.1473684E1,1.7368422E1,1.7E1,1.4210526E1,1.9944445E1,-3.4033208E0,5.9E1,1.9588236E1,2E0,6E0,6E0,2.0692308E1,2.7E1,6E0,1E1,1.2E1,4.19115E5,1.9444445E1,3.36023E5,6.0129905E-1,5E0,2.3526316E1,-1.96E2,1.6944445E1,1.8E1,1E0,-1.59E2,3E0,1E0,1.359481E6,-1.1125854E0,1.3631579E1,1.7E1,1.6105263E1,-4.457143E1,1.8105263E1,1.8777779E1,4.4965822E-1,2.0460937E0,-1.6699284E0,2.311111E1,-6.5622103E-1,-2.5538023E0,1.0838542E0,7.6972455E-1,1.6544142E0,2.608754E0,1.3049339E0,7.6108074E-1,-5.308038E-2,9.5028214E-2,-3.6529085E-1,-1.397054E-1,7.5683594E-3,3.1715894E-1,7.465719E-2,-8.138611E-2,6.801617E-1,3.1092218E-1,4.2874297E-1,1.8124115E0,1.6619733E-1,-1.1475754E-1,-1.195686E0,-8.065426E-1,-1.8106896E0,-7.477417E-1,-4.6907002E-1,-1.024607E-1,-7.4480844E-1,-1.4106768E0,1.6991602E-1,1.0166732E0,-5.860599E-1,-2.8156197E-2,-7.0274633E-1,9.5185626E-1],"split_indices":[4,4,5,4,7,7,7,0,7,7,5,7,7,0,5,7,5,5,5,7,3,5,5,5,0,7,0,0,5,7,4,7,3,1,4,5,2,0,0,7,1,7,8,7,7,0,0,0,7,0,0,0,0,0,0,0,0,0,0,0,0,0,0,0,0,0,0,0,0,0,0,0,0,0,0,0,0,0,0,0,0,0,0,0,0],"split_type":[0,0,0,0,0,0,0,0,0,0,0,0,0,0,0,0,0,0,0,0,0,0,0,0,0,0,0,0,0,0,0,0,0,0,0,0,0,0,0,0,0,0,0,0,0,0,0,0,0,0,0,0,0,0,0,0,0,0,0,0,0,0,0,0,0,0,0,0,0,0,0,0,0,0,0,0,0,0,0,0,0,0,0,0,0],"sum_hessian":[8.22E2,4.08E2,4.14E2,1.5E2,2.58E2,3.45E2,6.9E1,3E0,1.47E2,1.23E2,1.35E2,2.68E2,7.7E1,6E0,6.3E1,7.4E1,7.3E1,5.8E1,6.5E1,1.19E2,1.6E1,5.8E1,2.1E2,7.2E1,5E0,4.8E1,1.5E1,1.7E1,5.7E1,4E1,3.3E1,5.3E1,5E0,4.8E1,1.7E1,1.13E2,6E0,1.5E1,1E0,3.9E1,1.9E1,1.59E2,5.1E1,4.7E1,2.5E1,1E0,4E0,2.7E1,2.1E1,1E0,1.4E1,4E1,1.7E1,3.4E1,6E0,1.9E1,1.4E1,2.8E1,2.5E1,3E0,2E0,2E0,4.6E1,8E0,9E0,6.4E1,4.9E1,1E0,5E0,1.2E1,3E0,2.4E1,1.5E1,1.7E1,2E0,1.07E2,5.2E1,3.3E1,1.8E1,3.5E1,1.2E1,1.7E1,8E0,1.8E1,3E0],"tree_param":{"num_deleted":"0","num_feature":"9","num_nodes":"85","size_leaf_vector":"1"}},{"base_weights":[-1.3403836E-2,5.9976087E0,-6.541786E0,1.1982577E1,2.7369354E0,-4.5958962E0,-1.5510619E1,3.8852823E0,1.1175391E1,1.22977294E-1,4.173929E0,-6.4681134E0,2.4711754E0,-1.2580822E1,-2.541449E1,8.326706E0,1.3911554E1,-7.58236E-1,9.5098644E-1,5.1372986E0,1.3384938E0,-1.1919543E1,-4.827601E0,1.060113E0,1.7110647E1,-1.7344307E1,-4.9921556E0,-2.6638662E1,-4.1380388E-1,6.485971E-1,9.6185696E-1,1.682329E1,9.991179E0,-4.4148424E-1,-3.4573548E0,1.4279807E0,-9.567177E-1,4.2571616E0,1.1835907E1,1.888121E0,5.4666936E-1,-1.7819347E0,-1.0196268E1,-2.6311388E0,-7.829488E0,3.9860692E0,-3.9825668E0,4.271759E-1,1.8824072E0,-7.9125977E-1,-1.8697615E1,2.3140843E0,-7.150227E0,-5.1817477E-1,-2.7890598E1,1.4806013E0,2.3293805E0,1.1809654E0,6.900468E-1,-2.4702226E-1,-2.3775956E-2,-3.813835E-1,-1.0157166E-1,9.5832825E-2,1.7742881E-1,-1.4263307E-1,-3.27652E-2,3.5404927E-1,6.3839346E-1,5.1236063E-1,1.2474445E0,1.02857605E-1,-1.0569565E0,-8.7064266E-1,-1.3192567E0,-3.4858033E-1,1.4418887E-1,-6.288493E-1,-1.2770338E0,1.4986646E-1,9.2282736E-1,-5.8295554E-1,-2.5652397E-2,-1.9897608E0,-8.958127E-1,6.538114E-1,-9.40303E-1,-1.4353435E-2,-8.017093E-1,-3.2018642E0,-1.4881998E0],"categories":[],"categories_nodes":[],"categories_segments":[],"categories_sizes":[],"default_left":[0,0,0,0,0,0,0,0,0,0,0,0,0,0,0,0,0,0,0,0,0,0,0,0,0,0,0,0,0,0,0,0,0,0,0,0,0,0,0,0,0,0,0,0,0,0,0,0,0,0,0,0,0,0,0,0,0,0,0,0,0,0,0,0,0,0,0,0,0,0,0,0,0,0,0,0,0,0,0,0,0,0,0,0,0,0,0,0,0,0,0],"id":19,"left_children":[1,3,5,7,9,11,13,-1,15,17,19,21,23,25,27,29,31,33,35,37,39,41,43,45,47,49,51,53,-1,-1,-1,55,57,59,61,63,65,67,69,-1,71,-1,73,75,77,79,81,-1,-1,-1,83,85,87,-1,89,-1,-1,-1,-1,-1,-1,-1,-1,-1,-1,-1,-1,-1,-1,-1,-1,-1,-1,-1,-1,-1,-1,-1,-1,-1,-1,-1,-1,-1,-1,-1,-1,-1,-1,-1,-1],"loss_changes":[3.2335555E4,8.339153E3,6.8223984E3,2.8408848E3,1.0474783E3,4.3293203E3,1.7114082E3,0E0,1.0377441E3,7.368633E1,4.8480664E2,2.249787E3,1.4072083E3,1.9377305E3,2.8045898E2,1.159624E2,6.7663184E2,4.0366215E1,4.8684307E1,7.396355E2,6.425436E2,4.1816016E2,1.298106E3,9.6017303E2,5.157898E1,2.860293E2,3.7919617E2,2.3155566E2,0E0,0E0,0E0,1.9027734E2,1.09600586E2,1.8011364E1,4.7820282E-1,5.130699E0,2.7822504E0,1.6030078E2,3.7646484E-1,0E0,2.57293E2,0E0,9.94126E1,4.1231158E2,5.592549E2,5.2078876E2,1.636716E2,0E0,0E0,0E0,1.606875E2,3.584387E2,1.0817871E2,0E0,2.2159961E2,0E0,0E0,0E0,0E0,0E0,0E0,0E0,0E0,0E0,0E0,0E0,0E0,0E0,0E0,0E0,0E0,0E0,0E0,0E0,0E0,0E0,0E0,0E0,0E0,0E0,0E0,0E0,0E0,0E0,0E0,0E0,0E0,0E0,0E0,0E0,0E0],"parents":[2147483647,0,0,1,1,2,2,3,3,4,4,5,5,6,6,8,8,9,9,10,10,11,11,12,12,13,13,14,14,15,15,16,16,17,17,18,18,19,19,20,20,21,21,22,22,23,23,24,24,25,25,26,26,27,27,31,31,32,32,33,33,34,34,35,35,36,36,37,37,38,38,40,40,42,42,43,43,44,44,45,45,46,46,50,50,51,51,52,52,54,54],"right_children":[2,4,6,8,10,12,14,-1,16,18,20,22,24,26,28,30,32,34,36,38,40,42,44,46,48,50,52,54,-1,-1,-1,56,58,60,62,64,66,68,70,-1,72,-1,74,76,78,80,82,-1,-1,-1,84,86,88,-1,90,-1,-1,-1,-1,-1,-1,-1,-1,-1,-1,-1,-1,-1,-1,-1,-1,-1,-1,-1,-1,-1,-1,-1,-1,-1,-1,-1,-1,-1,-1,-1,-1,-1,-1,-1,-1],"split_conditions":[-1.51E2,-1.79E2,2.7E1,-2.23E2,1.768421E1,1.7052631E1,-1E1,3.8852823E0,2.1473684E1,1.7157894E1,1.1E1,1.4210526E1,1.9944445E1,1.9470589E1,3E0,2.0058823E1,2E0,6E0,6E0,1.9785715E1,-6E0,1.2421053E1,6E0,1.2E1,4.19115E5,-1.25E2,3E0,5.01259E5,-4.1380388E-1,6.485971E-1,9.6185696E-1,2.3368422E1,-1.96E2,1E0,1.4E1,1.7368422E1,9E0,1.9105263E1,3E0,1.888121E0,3.3E1,-1.7819347E0,6E0,1.6263159E1,-4.457143E1,1.8052631E1,1.8777779E1,4.271759E-1,1.8824072E0,-7.9125977E-1,2.7E1,9.81003E5,-7E0,-5.1817477E-1,1.136609E6,1.4806013E0,2.3293805E0,1.1809654E0,6.900468E-1,-2.4702226E-1,-2.3775956E-2,-3.813835E-1,-1.0157166E-1,9.5832825E-2,1.7742881E-1,-1.4263307E-1,-3.27652E-2,3.5404927E-1,6.3839346E-1,5.1236063E-1,1.2474445E0,1.02857605E-1,-1.0569565E0,-8.7064266E-1,-1.3192567E0,-3.4858033E-1,1.4418887E-1,-6.288493E-1,-1.2770338E0,1.4986646E-1,9.2282736E-1,-5.8295554E-1,-2.5652397E-2,-1.9897608E0,-8.958127E-1,6.538114E-1,-9.40303E-1,-1.4353435E-2,-8.017093E-1,-3.2018642E0,-1.4881998E0],"split_indices":[4,4,5,4,7,7,8,0,7,7,5,7,7,7,6,7,5,5,5,7,6,7,5,5,0,4,3,0,0,0,0,7,4,3,2,7,2,7,1,0,3,0,5,7,8,7,7,0,0,0,3,0,6,0,0,0,0,0,0,0,0,0,0,0,0,0,0,0,0,0,0,0,0,0,0,0,0,0,0,0,0,0,0,0,0,0,0,0,0,0,0],"split_type":[0,0,0,0,0,0,0,0,0,0,0,0,0,0,0,0,0,0,0,0,0,0,0,0,0,0,0,0,0,0,0,0,0,0,0,0,0,0,0,0,0,0,0,0,0,0,0,0,0,0,0,0,0,0,0,0,0,0,0,0,0,0,0,0,0,0,0,0,0,0,0,0,0,0,0,0,0,0,0,0,0,0,0,0,0,0,0,0,0,0,0],"sum_hessian":[8.22E2,4.28E2,3.94E2,1.5E2,2.78E2,3.25E2,6.9E1,3E0,1.47E2,9.9E1,1.79E2,2.57E2,6.8E1,5.5E1,1.4E1,7.4E1,7.3E1,4.8E1,5.1E1,1.33E2,4.6E1,5.8E1,1.99E2,6.3E1,5E0,3.3E1,2.2E1,1.3E1,1E0,3.3E1,4.1E1,4E1,3.3E1,4.4E1,4E0,4.1E1,1E1,1.19E2,1.4E1,1E0,4.5E1,1.1E1,4.7E1,1.16E2,8.3E1,4E1,2.3E1,1E0,4E0,5E0,2.8E1,5E0,1.7E1,1E0,1.2E1,3.3E1,7E0,1.9E1,1.4E1,3E0,4.1E1,3E0,1E0,1.9E1,2.2E1,5E0,5E0,9.1E1,2.8E1,2E0,1.2E1,4.4E1,1E0,3.4E1,1.3E1,9.6E1,2E1,6.5E1,1.8E1,2.8E1,1.2E1,1.5E1,8E0,2.4E1,4E0,4E0,1E0,2E0,1.5E1,8E0,4E0],"tree_param":{"num_deleted":"0","num_feature":"9","num_nodes":"91","size_leaf_vector":"1"}},{"base_weights":[-1.1457812E-2,5.93298E0,-5.4317656E0,3.0455809E0,1.1246323E1,-3.7465618E0,-1.3923693E1,8.1443816E-1,4.4472923E0,3.593886E0,1.0431386E1,-7.78686E0,-1.0295581E0,-2.9064252E0,-1.207896E1,2.6041666E-1,1.711515E0,4.8924174E0,-9.272054E-2,1.18464775E1,3.0254397E0,-1.4018617E1,-6.5582647E0,-1.5005714E0,1.5784505E1,-9.057885E0,-2.0764889E1,-4.7305757E-1,5.8789545E-1,2.2372327E0,2.1773182E-1,3.472196E0,6.323903E0,6.0862225E-1,-9.812012E-1,1.0729897E1,2.355698E0,9.822957E0,5.9152055E-1,-1.14168E1,-1.8334658E0,-5.2322407E0,-8.991019E0,-7.267628E-2,-5.782885E0,4.0581664E-1,1.731814E0,-1.0774624E1,5.3273063E0,-5.8332443E-1,-2.1371448E0,5.0128784E-2,-7.4797444E-2,8.28226E-2,-1.0722351E-1,-1.0651652E-2,2.421618E-1,6.158578E-2,-3.8319092E-2,3.9899495E-1,1.1697022E-1,6.8111503E-1,3.8884038E-1,8.104515E-2,-5.03006E-2,-1.96949E-1,2.52388E-2,1.1916391E0,6.860901E-1,2.8870088E-1,1.0632746E0,1.8076208E-1,-1.0041093E0,-1.1961712E0,-4.8866424E-1,-7.4335253E-1,-3.5181326E-1,-7.668278E-1,-1.1088767E0,-1.23601295E-1,6.571066E-1,-7.9997844E-1,-2.0238109E-1,-1.4249824E0,-6.830962E-1,2.0437622E-2,1.0382111E0],"categories":[],"categories_nodes":[],"categories_segments":[],"categories_sizes":[],"default_left":[0,0,0,0,0,0,0,0,0,0,0,0,0,0,0,0,0,0,0,0,0,0,0,0,0,0,0,0,0,0,0,0,0,0,0,0,0,0,0,0,0,0,0,0,0,0,0,0,0,0,0,0,0,0,0,0,0,0,0,0,0,0,0,0,0,0,0,0,0,0,0,0,0,0,0,0,0,0,0,0,0,0,0,0,0,0,0],"id":20,"left_children":[1,3,5,7,9,11,13,15,17,-1,19,21,23,-1,25,27,29,31,33,35,37,39,41,43,45,47,49,51,53,55,57,59,61,63,65,67,-1,69,71,73,-1,75,77,79,81,-1,-1,83,85,-1,-1,-1,-1,-1,-1,-1,-1,-1,-1,-1,-1,-1,-1,-1,-1,-1,-1,-1,-1,-1,-1,-1,-1,-1,-1,-1,-1,-1,-1,-1,-1,-1,-1,-1,-1,-1,-1],"loss_changes":[2.654985E4,5.9950537E3,6.115715E3,7.969973E2,2.4020625E3,3.9548623E3,1.6319834E3,4.9254272E1,3.177307E2,0E0,1.3789707E3,1.01822754E3,1.7422493E3,0E0,1.5175684E3,1.5410536E1,2.9354607E1,2.6876514E2,9.944122E0,1.224793E3,3.747155E2,4.895703E1,3.497417E2,1.295895E3,3.7623535E1,1.2921812E3,2.0246094E1,5.73223E0,1.8443169E1,1.2358231E1,2.8676636E0,8.355011E1,5.658374E1,2.426894E0,9.031073E0,4.0025E2,0E0,3.0030518E0,2.5089629E2,2.0395508E0,0E0,2.8325342E2,3.150879E1,1.2447472E3,4.2548486E2,0E0,0E0,5.1938574E2,1.532506E2,0E0,0E0,0E0,0E0,0E0,0E0,0E0,0E0,0E0,0E0,0E0,0E0,0E0,0E0,0E0,0E0,0E0,0E0,0E0,0E0,0E0,0E0,0E0,0E0,0E0,0E0,0E0,0E0,0E0,0E0,0E0,0E0,0E0,0E0,0E0,0E0,0E0,0E0],"parents":[2147483647,0,0,1,1,2,2,3,3,4,4,5,5,6,6,7,7,8,8,10,10,11,11,12,12,14,14,15,15,16,16,17,17,18,18,19,19,20,20,21,21,22,22,23,23,24,24,25,25,26,26,27,27,28,28,29,29,30,30,31,31,32,32,33,33,34,34,35,35,37,37,38,38,39,39,41,41,42,42,43,43,44,44,47,47,48,48],"right_children":[2,4,6,8,10,12,14,16,18,-1,20,22,24,-1,26,28,30,32,34,36,38,40,42,44,46,48,50,52,54,56,58,60,62,64,66,68,-1,70,72,74,-1,76,78,80,82,-1,-1,84,86,-1,-1,-1,-1,-1,-1,-1,-1,-1,-1,-1,-1,-1,-1,-1,-1,-1,-1,-1,-1,-1,-1,-1,-1,-1,-1,-1,-1,-1,-1,-1,-1,-1,-1,-1,-1,-1,-1],"split_conditions":[-1.55E2,2.0210526E1,2.7E1,1.8105263E1,-2.23E2,1.5526316E1,1.3736842E1,1.7526316E1,1.2E1,3.593886E0,1.8E1,1.3E1,1.9944445E1,-2.9064252E0,5.9E1,1.6882353E1,6E0,1.9105263E1,9E0,2.3842106E1,-1.93E2,-1E2,6E0,1.2E1,4.19115E5,2.3052631E1,3.36023E5,4E0,6E0,1E0,1.4E1,5E0,7E0,1.7E1,1.9473684E1,6E0,2.355698E0,7.34047E5,3.3E1,-1.06E2,-1.8334658E0,1.4285714E1,1.3E1,1.768421E1,1.8052631E1,4.0581664E-1,1.731814E0,1.8526316E1,1.1E1,-5.8332443E-1,-2.1371448E0,5.0128784E-2,-7.4797444E-2,8.28226E-2,-1.0722351E-1,-1.0651652E-2,2.421618E-1,6.158578E-2,-3.8319092E-2,3.9899495E-1,1.1697022E-1,6.8111503E-1,3.8884038E-1,8.104515E-2,-5.03006E-2,-1.96949E-1,2.52388E-2,1.1916391E0,6.860901E-1,2.8870088E-1,1.0632746E0,1.8076208E-1,-1.0041093E0,-1.1961712E0,-4.8866424E-1,-7.4335253E-1,-3.5181326E-1,-7.668278E-1,-1.1088767E0,-1.23601295E-1,6.571066E-1,-7.9997844E-1,-2.0238109E-1,-1.4249824E0,-6.830962E-1,2.0437622E-2,1.0382111E0],"split_indices":[4,7,5,7,4,7,7,7,5,0,5,7,7,0,5,7,5,7,3,7,4,4,5,5,0,7,0,2,5,1,2,5,5,1,7,5,0,0,3,4,0,7,5,7,7,0,0,7,2,0,0,0,0,0,0,0,0,0,0,0,0,0,0,0,0,0,0,0,0,0,0,0,0,0,0,0,0,0,0,0,0,0,0,0,0,0,0],"split_type":[0,0,0,0,0,0,0,0,0,0,0,0,0,0,0,0,0,0,0,0,0,0,0,0,0,0,0,0,0,0,0,0,0,0,0,0,0,0,0,0,0,0,0,0,0,0,0,0,0,0,0,0,0,0,0,0,0,0,0,0,0,0,0,0,0,0,0,0,0,0,0,0,0,0,0,0,0,0,0,0,0,0,0,0,0,0,0],"sum_hessian":[8.22E2,3.92E2,4.3E2,2.55E2,1.37E2,3.6E2,7E1,9.9E1,1.56E2,3E0,1.34E2,1.44E2,2.16E2,6E0,6.4E1,6.2E1,3.7E1,1.42E2,1.4E1,1.12E2,2.2E1,2.2E1,1.22E2,2.11E2,5E0,4.9E1,1.5E1,1.9E1,4.3E1,2.7E1,1E1,7.3E1,6.9E1,8E0,6E0,1.04E2,8E0,5E0,1.7E1,1.6E1,6E0,8.1E1,4.1E1,1.59E2,5.2E1,1E0,4E0,4.4E1,5E0,1E0,1.4E1,4E0,1.5E1,3.8E1,5E0,2E0,2.5E1,6E0,4E0,5.9E1,1.4E1,5.6E1,1.3E1,7E0,1E0,3E0,3E0,7.8E1,2.6E1,1E0,4E0,1.6E1,1E0,1.4E1,2E0,3.4E1,4.7E1,2.8E1,1.3E1,1.36E2,2.3E1,3.2E1,2E1,2.2E1,2.2E1,3E0,2E0],"tree_param":{"num_deleted":"0","num_feature":"9","num_nodes":"87","size_leaf_vector":"1"}},{"base_weights":[-1.21248225E-2,5.365142E0,-4.9152656E0,2.78783E0,1.02700205E1,-3.3852613E0,-1.2625354E1,7.350528E-1,4.053392E0,3.3243454E0,9.496053E0,-8.168157E0,-1.4701127E0,